<?xml version="1.0"?>
<opencv_storage>
<opencv_ml_ann_mlp>
  <format>3</format>
  <layer_sizes>
    256 10 10 10 26</layer_sizes>
  <activation_function>SIGMOID_SYM</activation_function>
  <f_param1>6.6666666666666663e-01</f_param1>
  <f_param2>1.7159000000000000e+00</f_param2>
  <min_val>-9.4999999999999996e-01</min_val>
  <max_val>9.4999999999999996e-01</max_val>
  <min_val1>-9.7999999999999998e-01</min_val1>
  <max_val1>9.7999999999999998e-01</max_val1>
  <training_params>
    <train_method>BACKPROP</train_method>
    <dw_scale>1.0000000000000000e-03</dw_scale>
    <moment_scale>0.</moment_scale>
    <term_criteria>
      <iterations>300</iterations></term_criteria></training_params>
  <input_scale>
    1.1514153988737031e-02 -4.1514921881612965e-01
    2.3863178957040466e-02 -1.6903085094570330e-01
    1.8012171333993552e-02 -2.4916837012024415e-01
    1.0768800075499347e-02 -4.6829323661650635e-01
    9.6780627900448675e-03 -5.4734821779253751e-01
    8.1976393636166781e-03 -7.9915598185035364e-01
    8.1380436523893832e-03 -8.0091912945598853e-01
    8.6326631786157095e-03 -7.3077891768976033e-01
    7.9695976459737035e-03 -1.0076006579347032e+00
    8.1267173285003522e-03 -1.1579443482372933e+00
    9.1015551568768838e-03 -6.3609757707506220e-01
    1.4188769156600639e-02 -3.0151134457776357e-01
    2.6705351506254769e-02 -1.7024661585237416e-01
    1.2478354962115544e-02 -3.5355339059327373e-01
    1.7127349057561726e-02 -2.5334203814310052e-01
    3.7313659122252159e-02 -1.1867816581938533e-01
    1.1198880834241311e-02 -4.2166897141150272e-01
    1.7061189841266255e-02 -2.7108334970011938e-01
    1.6449939870760349e-02 -2.6936776538370072e-01
    9.9370145602642908e-03 -5.2762787033181091e-01
    8.1370850911012226e-03 -1.1833808054016790e+00
    9.0373985186463276e-03 -1.6755587892418031e+00
    8.3662707853618054e-03 -1.4073926632264193e+00
    8.9815372181796475e-03 -1.6336418251288980e+00
    9.2447125334409654e-03 -1.7216993105681933e+00
    8.1928614957523967e-03 -1.2741037523324943e+00
    8.0398910634300654e-03 -8.9778783541635732e-01
    1.1942935638939740e-02 -4.0904554563368606e-01
    1.2478354962115544e-02 -3.5355339059327373e-01
    1.3242437991891953e-02 -3.3602686404425830e-01
    1.9611777207887711e-02 -2.1654670667042680e-01
    1.5426589121171381e-02 -2.7317918235407651e-01
    1.2489352999587739e-02 -3.5889543550204211e-01
    1.0893108195474384e-02 -4.3769113902093604e-01
    1.1470942752330966e-02 -4.7731867341643858e-01
    8.1515527802213730e-03 -1.2177514125564040e+00
    1.0303252416340876e-02 -2.1114512417098559e+00
    1.2565569025716655e-02 -2.7947919774698127e+00
    1.5077566611778918e-02 -3.5472069560683761e+00
    9.9174400440746862e-03 -2.0074551555881177e+00
    1.0153369678435005e-02 -2.1024526185526042e+00
    8.2988787232594775e-03 -1.3634366169088383e+00
    8.0637295132455263e-03 -9.1120143499674444e-01
    9.2823592788256401e-03 -5.6764205423151792e-01
    1.0900114397395523e-02 -4.2465029006520061e-01
    1.4184169256191015e-02 -3.1086970953151977e-01
    1.7120161767270561e-02 -2.4253562503633294e-01
    1.7120161767270561e-02 -2.4253562503633294e-01
    1.7120161767270561e-02 -2.4253562503633294e-01
    1.0806891928930846e-02 -4.4353285624987010e-01
    8.2491732998956502e-03 -7.7702629610961527e-01
    8.2143652568134589e-03 -1.2634150118604477e+00
    1.2454436299215393e-02 -2.8091672986008054e+00
    1.1938267813072235e-02 -2.6663789541946477e+00
    1.9009246551076237e-02 -4.6129104963945000e+00
    1.1466850063490750e-02 -2.4819359915199981e+00
    1.1426270860051213e-02 -2.4928314259678395e+00
    8.8293456348562688e-03 -1.5745666382160346e+00
    7.9239345383734956e-03 -9.9269291022401285e-01
    8.6621102241718258e-03 -6.4412414083633274e-01
    1.0235456251647353e-02 -4.8817439955773623e-01
    1.5426589121171381e-02 -2.7317918235407651e-01
    2.1765625024552576e-02 -2.1433094642233019e-01 1. 0.
    3.1308446600862905e-02 -1.8741584006905432e-01
    1.0135443721005740e-02 -5.1282529827255430e-01
    7.9703589364492639e-03 -1.1309053735384123e+00
    9.4034089488218234e-03 -1.8306608782727152e+00
    1.1324435303031528e-02 -2.4654239357641554e+00
    1.3236910050028113e-02 -3.0472470011002217e+00
    1.5310469687615357e-02 -3.6043397389594487e+00
    1.3786317551261425e-02 -3.1733422330146608e+00
    1.3025769158675702e-02 -2.9557641182561611e+00
    9.0909775708964777e-03 -1.7269069477382102e+00
    7.9981056113669225e-03 -1.1358420816142609e+00
    7.9046756827888844e-03 -9.6667596370772402e-01
    9.2932089715946076e-03 -5.6043212992588598e-01
    1.4188769156600639e-02 -3.0151134457776357e-01 1. 0. 1. 0.
    1.5308522245305635e-02 -3.1276161420617488e-01
    8.9858847839426031e-03 -6.5983851184311870e-01
    8.1051442959285021e-03 -1.1459773462854466e+00
    9.4130532431846194e-03 -1.7930559059760702e+00
    1.7524619243604506e-02 -4.1801084845786640e+00
    1.0771861654826178e-02 -2.3009893368225920e+00
    1.0563209413114744e-02 -2.2081509010665279e+00
    1.4002106005975453e-02 -3.2095938544808180e+00
    1.1480669532074534e-02 -2.5131504513198157e+00
    9.1950739247502866e-03 -1.7668589965127808e+00
    8.1553838804725148e-03 -1.3061073823017857e+00
    7.8782437739623196e-03 -1.0277825523448343e+00
    9.6512317425826027e-03 -5.3617954125458911e-01
    1.7120161767270561e-02 -2.4253562503633294e-01 1. 0. 1. 0.
    1.7120161767270561e-02 -2.4253562503633294e-01
    9.6855121934612074e-03 -5.4292676684457553e-01
    8.6697963159349523e-03 -1.4996339349813042e+00
    8.9968477896578882e-03 -1.6842848799555372e+00
    1.0946832069744391e-02 -2.3398853549078638e+00
    1.4134719295676940e-02 -3.2162375864038237e+00
    1.8152338896173185e-02 -4.3880758123318655e+00
    1.7043123978857100e-02 -4.0894029147046567e+00
    1.2429421731567369e-02 -2.8007630301798474e+00
    9.9896281378395041e-03 -2.0233159324182428e+00
    8.9292965469108549e-03 -1.6684142561887740e+00
    8.0423752126734457e-03 -8.6455533536239537e-01
    9.6736955477825775e-03 -5.2237955958025917e-01
    3.1223343040221004e-02 -1.5524940011665445e-01 1. 0. 1. 0.
    2.3572959602355184e-02 -1.8792887238544273e-01
    8.7543311335131577e-03 -7.0144078207274174e-01
    8.4208531206890237e-03 -1.3611373419247064e+00
    1.0713338816207025e-02 -2.2636392140410759e+00
    2.2514115322501336e-02 -5.5265899195817862e+00
    2.2316041754142535e-02 -5.4881965463972477e+00
    1.9240968557371358e-02 -4.6624608113952517e+00
    1.6320202841797634e-02 -3.8515678706642418e+00
    1.1966818303960297e-02 -2.6215642376161914e+00
    1.0522672835293128e-02 -2.2360679774997898e+00
    8.3977913086003345e-03 -1.4191100951630593e+00
    9.4467464810199190e-03 -5.4673045258902786e-01
    1.2478354962115544e-02 -3.5355339059327373e-01
    2.6097346002240472e-02 -1.6818289645888304e-01 1. 0. 1. 0.
    1.5258621319635254e-01 -1.1867816581938531e-01
    8.6697629407479129e-03 -7.9412620269767342e-01
    8.3625419328630067e-03 -1.3171003544259237e+00
    1.1871494739961398e-02 -2.6331634860719930e+00
    2.1851364301165084e-02 -5.3484249038810034e+00
    1.6304622483705442e-02 -3.8798207918517407e+00
    1.9933836717132086e-02 -4.8646867355101095e+00
    1.1281378659938571e-02 -2.4496260273538835e+00
    9.8198010421007113e-03 -1.9658696141783287e+00
    1.0351375339512267e-02 -2.1542362234340531e+00
    8.0926744788952891e-03 -8.1612374154525968e-01
    1.2479446541608361e-02 -3.6329055487793227e-01
    2.3863178957040466e-02 -1.6903085094570330e-01
    2.3863178957040466e-02 -1.6903085094570330e-01 1. 0. 1. 0. 1. 0.
    9.5017903600933332e-03 -5.5255550330153869e-01
    8.7768478777276709e-03 -1.4958430598277255e+00
    1.2356076380076410e-02 -2.7603817857434589e+00
    1.6458340691743650e-02 -3.9237141385247187e+00
    3.3507445414492437e-02 -8.4220033286954123e+00
    1.3372934995955090e-02 -3.0585016746998956e+00
    1.3129281836340233e-02 -3.0018644109699015e+00
    1.2547085461475980e-02 -2.8126383242808655e+00
    8.1978478157337508e-03 -1.0404435186135419e+00
    9.4911260495488554e-03 -5.3888504570216278e-01
    2.3863178957040466e-02 -1.6903085094570330e-01
    2.3863178957040466e-02 -1.6903085094570330e-01
    2.3863178957040466e-02 -1.6903085094570330e-01 1. 0. 1. 0. 1. 0.
    1.3131146404668378e-02 -3.4578685532293396e-01
    8.2228501005049449e-03 -1.2177812586345031e+00
    1.0265086267289390e-02 -2.1051981086499323e+00
    1.4794399818195360e-02 -3.4542868797733641e+00
    1.6655962039388357e-02 -3.9590296436401715e+00
    1.2316140970616521e-02 -2.7201565793714435e+00
    1.0903631573910897e-02 -2.3277739017025612e+00
    8.3970387186626579e-03 -1.1461957850974529e+00
    1.0788514417543110e-02 -4.9612182272896166e-01
    1.7120161767270561e-02 -2.4253562503633294e-01
    2.3863178957040466e-02 -1.6903085094570330e-01
    2.3863178957040466e-02 -1.6903085094570330e-01
    2.3863178957040466e-02 -1.6903085094570330e-01 1. 0. 1. 0.
    3.3509129172532327e-02 -1.1867816581938533e-01
    1.6499791304740746e-02 -2.8462140000677788e-01
    8.8822439740084292e-03 -6.7085614903691437e-01
    9.5395685971933365e-03 -1.8689604810001277e+00
    1.6917644412461571e-02 -4.0217000244957255e+00
    1.5980356235325188e-02 -3.7573812598308347e+00
    1.1018576221984985e-02 -2.3461915563784972e+00
    8.6799832994509211e-03 -1.4897021337682643e+00
    8.7762025558399907e-03 -6.7674273041699484e-01
    2.3863178957040466e-02 -1.6903085094570330e-01
    2.3863178957040466e-02 -1.6903085094570330e-01
    2.3863178957040466e-02 -1.6903085094570330e-01
    2.3863178957040466e-02 -1.6903085094570330e-01
    2.3863178957040466e-02 -1.6903085094570330e-01 1. 0. 1. 0.
    3.5495657871000140e-02 -1.6860437488725066e-01
    2.3863178957040466e-02 -1.6903085094570330e-01
    1.0442555675550472e-02 -5.1197529909296069e-01
    8.0583636890250998e-03 -9.4775310720367423e-01
    9.2080177105919436e-03 -1.6639655337848860e+00
    9.9904954349900113e-03 -1.9767305273176070e+00
    8.4217773025330334e-03 -1.3722818237960772e+00
    8.1364552955151027e-03 -1.1702934866715891e+00
    1.6159734621550716e-02 -2.7718433691132133e-01
    2.3863178957040466e-02 -1.6903085094570330e-01
    2.5010260219121189e-02 -1.6881925647906804e-01
    3.3509129172532327e-02 -1.1867816581938533e-01
    2.3863178957040466e-02 -1.6903085094570330e-01
    2.3863178957040466e-02 -1.6903085094570330e-01 1. 0.
    1.9491103732297989e-02 -2.2414769292142686e-01
    3.3509129172532327e-02 -1.1867816581938533e-01
    1.3527038219155123e-02 -3.6166039683157791e-01
    8.3634640300318461e-03 -8.1113985169044978e-01
    8.8702225222531822e-03 -1.5140977055346059e+00
    1.1943403593621497e-02 -2.6219088500108527e+00
    1.2695321273286923e-02 -2.8404018109913758e+00
    8.8250818925440580e-03 -1.5636329125442296e+00
    8.7216283845056048e-03 -7.6508062328524173e-01
    2.7233680310469108e-02 -1.8912277993381327e-01
    2.3863178957040466e-02 -1.6903085094570330e-01
    2.3863178957040466e-02 -1.6903085094570330e-01
    2.3863178957040466e-02 -1.6903085094570330e-01 1. 0.
    1.9142195154744478e-02 -2.4007503089908699e-01
    1.3577599455438221e-02 -3.4453158618174484e-01
    8.9921583931975319e-03 -6.0959340440551602e-01
    2.6215214672402322e-02 -2.1481912023218569e-01
    1.4050045633942725e-02 -3.2568786337570016e-01
    8.4471590206656594e-03 -7.8746293537094314e-01
    9.5240562370155248e-03 -1.7742523098206837e+00
    1.0906408327649188e-02 -2.3374553736660366e+00
    1.2856990550264714e-02 -2.8697874324070032e+00
    8.8631595127845672e-03 -1.5657017478209292e+00
    1.2039991699015722e-02 -4.3310525695070445e-01
    3.4623532475917512e-02 -1.6830883842459901e-01
    3.3509129172532327e-02 -1.1867816581938533e-01
    2.3863178957040466e-02 -1.6903085094570330e-01
    3.3509129172532327e-02 -1.1867816581938533e-01
    1.9621842440704380e-02 -2.1502269007938551e-01
    1.0752262755863624e-02 -4.4950431798818763e-01
    8.0311935000490515e-03 -8.7908105519286905e-01
    8.3809348368710998e-03 -1.3784309769198273e+00
    1.8137633643603910e-02 -2.4082746893451859e-01
    1.0016617816522867e-02 -5.5077486021686151e-01
    8.3495961293980660e-03 -9.1103371100765562e-01
    8.2805501283414479e-03 -1.2282816023706482e+00
    8.4055559766086814e-03 -1.1542462769545838e+00
    8.4558527215868803e-03 -9.8146612769863273e-01
    8.1362982461039880e-03 -1.0374910305205653e+00
    1.5513836283771214e-02 -3.1415518474636711e-01
    3.3509129172532327e-02 -1.1867816581938533e-01
    3.3509129172532327e-02 -1.1867816581938533e-01
    1.9624886028901153e-02 -2.0851441405707474e-01
    2.3863178957040466e-02 -1.6903085094570330e-01
    1.2353588086276259e-02 -3.7798547991759163e-01
    8.3234282176163337e-03 -7.9396256942484689e-01
    8.2781619872683929e-03 -1.3454312718752046e+00
    1.0138770062970806e-02 -2.0691539903512921e+00</input_scale>
  <output_scale>
    5.2631578947368418e-01 4.9999999999999994e-01 5.2631578947368418e-01
    4.9999999999999994e-01 5.2631578947368418e-01 4.9999999999999994e-01
    1. 0. 1. 0. 1. 0. 1. 0. 1. 0. 1. 0. 1. 0. 1. 0. 1. 0. 1. 0. 1. 0. 1.
    0. 1. 0. 1. 0. 1. 0. 1. 0. 1. 0. 1. 0. 5.2631578947368418e-01
    4.9999999999999994e-01 1. 0. 1. 0. 5.2631578947368418e-01
    4.9999999999999994e-01 1. 0.</output_scale>
  <inv_output_scale>
    1.8999999999999999e+00 -9.4999999999999996e-01
    1.8999999999999999e+00 -9.4999999999999996e-01
    1.8999999999999999e+00 -9.4999999999999996e-01 1. 0. 1. 0. 1. 0. 1.
    0. 1. 0. 1. 0. 1. 0. 1. 0. 1. 0. 1. 0. 1. 0. 1. 0. 1. 0. 1. 0. 1. 0.
    1. 0. 1. 0. 1. 0. 1.8999999999999999e+00 -9.4999999999999996e-01 1.
    0. 1. 0. 1.8999999999999999e+00 -9.4999999999999996e-01 1. 0.</inv_output_scale>
  <weights>
    <_>
      -4.6216155532759276e-02 6.1910199033837147e-02
      3.1708231789225549e-02 -1.8206734276645015e-02
      2.0158904651846853e-02 -8.0247245228005346e-02
      9.1025334232908706e-02 -1.1323541836096705e-01
      3.5776154440870081e-02 1.1252845355907164e-01
      1.2255799965355356e-02 2.2271923868418631e-02
      3.0426398863408820e-03 4.7692098209166514e-03
      8.4135975292016548e-03 -2.2055875683921145e-02
      5.2991242884615847e-02 -7.1422234225922601e-02
      1.8536851646401952e-03 5.2996437413638402e-02
      -8.4553774205286501e-03 -1.1784067283972072e-03
      -3.3842448915936733e-02 -3.8178447782669184e-02
      6.5183016867771393e-02 -1.0362988111184515e-02
      -5.4555926965756486e-02 4.7151992913230946e-02
      3.3885688351677351e-02 -2.5997751543990734e-02
      4.7351548535809099e-02 7.1492603727938170e-02
      -3.1830842128861683e-02 -6.3800325021723628e-02
      1.3580656197783553e-01 -6.2224194618621997e-02
      -1.3246803373398991e-01 -2.0502876198017404e-02
      2.4163529717505936e-02 -2.7389667635731436e-02
      8.4657048725044592e-02 7.8710483489557240e-02
      -4.3585416609231577e-02 -2.3419842541408636e-02
      1.0995461373996268e-01 -4.3053462547801576e-02
      -1.0604631386721378e-01 -7.5779531035987516e-02
      8.6376343676303705e-03 -1.6401703098226635e-02
      1.5861293615436443e-02 -4.6482045506484007e-02
      -8.0558015849412370e-02 7.9979554791322661e-03
      7.6765058833135258e-03 4.2495487473242416e-02
      3.3257426569183214e-02 -2.4744883172059431e-02
      9.8363519721326540e-03 1.2988229062120235e-02
      -4.7409846824597077e-02 -1.0686258406748271e-01
      -5.1010496262437963e-02 1.5463265713012956e-02
      -6.2747921654552577e-02 7.6311186996634861e-02
      1.2973359308891613e-01 3.8998803303784704e-02
      1.3391833618065115e-02 2.3964372839159951e-02
      -4.5823994101528681e-02 -8.7278243615397752e-02
      -3.8512138522165368e-02 2.0768916340797798e-02
      -7.1142813385519338e-02 6.2752236886918750e-02
      1.1028519579627334e-01 3.8648948381340961e-02
      2.9897891500375788e-03 2.0954406067454565e-02
      -3.8809481562323916e-02 -5.5680318985579881e-02
      4.8014268046369747e-02 3.9667701044190484e-02
      -1.0356694205082102e-01 4.7252809031186394e-02
      -2.3933148187662050e-02 1.2957250106056475e-01
      -3.2732306981331928e-02 -7.6420138629859913e-02
      4.6714494320746702e-02 -1.4460704683557261e-02
      -1.2876317122663218e-02 1.8593526801169803e-02
      1.8292384895938476e-03 3.0089405908366149e-02
      -5.7326857525312865e-02 3.0277111359483570e-02
      -2.9149211577527083e-02 -4.7463025957677915e-02
      1.0901252350886885e-01 5.8335838704501625e-02
      -2.6248458030589516e-02 -2.1796620220016520e-03
      9.0360394371570077e-02 -2.4013473792016935e-02
      -1.1037486109628158e-01 -6.4459901009907783e-02
      -2.1333676028255276e-02 -2.5537375648078803e-02
      7.7007668731011419e-02 1.5318001617614079e-03
      -5.1657945154305600e-02 3.1328488749322835e-02
      2.5515533965700318e-02 3.2390667009128953e-02
      -7.5061643172695770e-03 -8.2631599193689467e-02
      -2.0730126308575923e-02 -8.4914420572797331e-03
      -1.5058874761492303e-03 -3.4764745035846781e-03
      -2.0441769827899199e-02 -5.2694270345824096e-04
      1.5161642650040755e-02 2.3477914962959120e-03
      1.4039681850161353e-02 -3.9319870616164460e-02
      1.5541585141125433e-02 1.3827699408974457e-02
      -2.5979160603399731e-02 4.3942659674945359e-02
      1.5368685173928125e-02 -1.3785650918711621e-02
      2.8366035619269314e-02 -5.7804759774056344e-02
      6.9288927969421099e-02 -9.8286954733557128e-02
      3.3765062489887504e-02 9.2999623804884246e-02
      -1.0054442759983146e-02 4.2223443102530102e-02
      1.7880636479040774e-02 1.5669094142270665e-03
      9.0055471318209162e-03 -3.8548824387679023e-02
      5.8489230420268754e-02 -8.5592285823360731e-02
      1.1642664196466750e-02 6.7709093444632065e-02
      1.8378565153185755e-02 -3.6421998804077979e-03
      -2.4460780205993321e-02 1.4974306069920253e-02
      3.2806118018909808e-03 1.8132038056234791e-02
      2.8467671781951365e-02 -4.0477774840401791e-02
      -1.4653121135764779e-02 1.1269207984208298e-02
      -4.4284323661180965e-02 5.4575507801899903e-02
      2.7372168521523684e-02 -2.7643037119068226e-02
      1.2912135612035140e-02 -8.7707794731010896e-02
      9.2717778561149183e-02 -1.0346162166090937e-01
      3.5957031031655096e-02 1.0990150600060160e-01
      -1.7134707442507016e-02 4.8492814039362057e-02
      2.0885337749941609e-02 -1.9903088079031801e-02
      2.0454179320448025e-02 -6.2757682506899934e-02
      6.1119933320080262e-02 -9.5157783618497291e-02
      2.5505715027396278e-02 8.8839558994459444e-02
      -1.2325534493653952e-02 -4.0470310991080796e-02
      -1.5542127768583752e-02 1.8091548320936759e-02
      -2.0044483632888643e-02 3.4563059574608659e-02
      8.0373300444828155e-02 -2.6070381395401913e-02
      1.0094736839495353e-02 2.2821801409201252e-02
      -3.3798352610286665e-02 -1.6200858350796866e-02
      -3.7592533648187133e-02 -4.3454813489262611e-02
      5.4288651807696028e-02 -1.9511359315104164e-02
      3.1302042825390085e-02 -3.7935221554312730e-03
      5.6202873576902679e-02 3.9512808805134775e-02
      2.8730665640630058e-02 -8.5682985454535489e-03
      -2.5238765420083322e-02 7.5736707580274457e-03
      1.3875488254821529e-02 2.1779211408998311e-02
      -3.2887485406202781e-02 1.6014735644403099e-02
      2.7684845284912723e-03 -3.4609681340108361e-02
      -5.2547685145253485e-03 -2.4934714346309974e-02
      -2.3831861748681397e-02 1.8036641371895874e-02
      -2.8627253867379809e-02 3.1042081441795436e-02
      5.9098590915461983e-02 -2.0944716245931909e-02
      2.7378388559987478e-03 3.3770875352395757e-02
      -3.2922364652833123e-02 -1.0395324355261260e-01
      -3.0676460893189320e-02 4.2131215418154573e-02
      -9.4039773491294970e-02 9.5625299769351385e-02
      1.3599280065265670e-01 1.1963655197446452e-02
      -1.8029154076821721e-02 2.0767910891011682e-02
      -3.9642132638266457e-02 -2.8593965013830019e-02
      4.3453914870241112e-02 5.8860805402747664e-02
      -1.0970620131775800e-01 3.0443241988293575e-02
      7.9883834577115731e-02 8.8376614520125855e-03
      -2.8828261143837425e-02 1.6298369598664555e-02
      -2.9548529328361144e-02 -5.4970552809108141e-02
      -1.2520600069063656e-02 2.0721026173612912e-02
      -4.0736595146579221e-02 4.0414409654244476e-02
      9.8613278436920346e-02 -7.4579792446791675e-03
      -4.6482962904185075e-03 2.2600732815744495e-02
      -5.9684871378156125e-02 -3.0997499567107803e-02
      6.1500779582026835e-02 -1.7711718936784717e-02
      -5.0896762364772551e-02 1.9437793598468837e-03
      -6.3833761143484338e-02 1.5237508229537663e-01
      -8.5043068212469052e-03 -8.6844258012028580e-02
      -5.1916663330826658e-03 4.0563605451137902e-03
      3.4415984332259592e-02 -1.5816742780477240e-02
      1.0858071501171882e-02 -9.8077651378423655e-03
      -1.0575418653847267e-01 9.4035369535403757e-02
      -2.7054243275225459e-02 -7.1760158329007978e-02
      -1.4181197488546692e-02 4.4309919412874967e-02
      5.0819851336728124e-02 -4.8552138825863223e-03
      1.2161095755327136e-02 -4.2693963378924650e-02
      -9.2834285203216606e-03 -2.9325725802008297e-02
      -4.4471580095860573e-03 2.1848475861687842e-02
      -1.5650229018051205e-02 4.4970495808896671e-02
      1.6597856612612920e-02 -1.2738425032084451e-02
      2.6264530657763727e-02 -6.2515881318589206e-02
      7.2737127866029233e-02 -1.0204991056149390e-01
      3.6761936036754400e-02 9.9479736868000324e-02
      -2.8403175833596479e-02 4.2598840862160037e-02
      1.4272751802447468e-02 -1.5745938438925144e-02
      2.2855149366141740e-02 -6.2124528534467691e-02
      6.4641180958897301e-02 -8.4486567621979647e-02
      2.4374686614717214e-02 8.4184445372638181e-02
      -2.0784115836660420e-02 1.7637835992310918e-02
      3.0859273354461609e-03 -2.4800034098294715e-02
      3.9037907347151679e-02 -3.8766355746598008e-02
      4.3983040400292578e-02 -4.3467664282943318e-02
      1.9991648043179659e-02 4.8622008573070599e-02
      -1.6980025504593283e-02 1.8564105784283500e-02
      4.9806857513463570e-03 -7.0523363292627310e-03
      1.1747495555286275e-02 -2.4412072192368729e-02
      4.1781229112903037e-02 -4.4394797270049254e-02
      1.6628345630651076e-02 4.3835893350682401e-02
      -4.8609946276122605e-02 5.1192343268466715e-02
      3.9119094539767925e-02 -2.8315542120372652e-02
      4.1754372983989936e-03 -6.4396193926131051e-02
      5.8259198956027380e-02 -6.4481207446767427e-02
      3.3151785575736996e-02 8.2692065569520967e-02
      -3.0337753590155791e-02 5.5581952874735684e-02
      2.7891267016639736e-02 -1.5721609276632888e-02
      8.0654205829610737e-03 -6.6169403654598100e-02
      8.1820309638103605e-02 -1.1476000046129510e-01
      2.8486283243883498e-02 1.1141728041527733e-01
      -6.3641665409152906e-02 3.7022895592354276e-03
      4.6979574607769838e-02 -7.1680739233967779e-03
      -5.4887247283261109e-02 -3.1919513798594805e-02
      6.6505444898946206e-02 1.5120749479023123e-02
      2.3484615253716527e-02 3.7057114002557880e-02
      -6.1597297204787375e-03 1.6406471325813379e-02
      2.9369175499773810e-02 2.8869644402393386e-02
      -1.9020090365042281e-02 1.2834920329403191e-03
      -5.9894306100288699e-03 3.4416321375847743e-03
      -1.7679493313941252e-02 4.3232204826256589e-04
      1.2744948848925856e-02 -8.4097015080535301e-03
      2.0183490778035579e-03 1.5867764091714021e-02
      -1.9410108257601692e-02 2.9639136468226926e-02
      3.1763665874247854e-03 -4.3934051872458902e-03
      -1.2363947807696259e-02 -1.3415701752752987e-02
      1.1597358455784816e-02 -1.2229674050950642e-03
      1.3935159642946946e-02 2.1280835230751666e-02
      -3.7888320374478424e-02 1.0130703219155737e-02
      1.1138749788409398e-02 -4.7359264005033420e-03
      -2.4726818828223949e-02 -1.5286953553173732e-03
      -8.1900173384312786e-03 -1.2059800123663401e-02
      -4.4529592802584192e-03 8.9030972114805106e-03
      -8.0579996155951648e-03 1.5446296398280466e-02
      3.3737295362153322e-02 7.1812772623216614e-04
      -2.0470797431171475e-03 1.5039796071455652e-02
      -5.6149695781997681e-02 -6.2898575432300333e-02
      3.6431399439644060e-02 5.4596046417914400e-02
      -1.2793209573410885e-01 4.7151524595717580e-02
      1.0695143879905099e-01 4.1247801139536154e-02
      -2.0051332842222068e-02 2.3499566097345548e-02
      -4.9615455280311582e-02 -2.4354558691849125e-02
      2.8796989030082657e-02 8.6942350611731098e-03
      -5.8366237353290162e-02 1.4079293673842669e-02
      8.0861432187928541e-03 6.4624520737173924e-02
      -1.4587746347282203e-02 -2.1794393121835450e-02
      -8.5270224403785524e-02 -2.1526567176199517e-02
      7.3705962319921117e-02 -3.5173438395020414e-02
      -4.6530341540799221e-02 -2.1645086542595973e-02
      -3.2515301602004394e-02 1.3521365770444949e-01
      4.9702150083562524e-03 -5.0970773289407717e-02
      -5.1135616696510310e-02 -3.1214668216079010e-02
      5.5024764914619280e-02 -1.9885434366752327e-02
      -3.7091647245317730e-02 -6.0205254093166549e-03
      -4.0744815504075063e-02 1.2599146373832673e-01
      -7.1070608637099015e-03 -5.9230744574803040e-02
      -1.4272717224958096e-02 6.2128189854929773e-02
      1.1386498862535763e-01 -6.5260068694573807e-04
      -1.9637748128984261e-02 -5.9528806644371657e-02
      -7.5645670680936278e-02 4.5107534599645512e-02
      -2.3761614620343031e-02 -3.1534588024565546e-02
      -3.3847525653926534e-02 4.9233532244742577e-02
      1.4691721759830965e-02 -2.9190031854314999e-02
      4.0365785977798094e-02 -7.1926084667025936e-02
      8.1054368828370554e-02 -1.0325277194436294e-01
      4.4864320289110970e-02 1.1285327308970568e-01
      -1.4481408664310804e-02 2.2688552252944801e-02
      -1.8810934157127914e-03 -1.3212137545694728e-02
      2.2468420580735386e-02 -3.6992282992611258e-02
      3.8948758821449332e-02 -4.8783777263412896e-02
      2.0968699174901587e-02 5.1113323712795644e-02
      -3.0286454449928151e-02 3.2061847953930703e-02
      1.6921420682294450e-02 -1.1844593217802436e-02
      1.4169223351453812e-02 -4.4849279694354191e-02
      4.3169782137149219e-02 -3.3480524560970754e-02
      1.8876153804813788e-02 5.4916038433735472e-02
      -3.4916428990989477e-02 2.0064512397910308e-02
      1.9228491191603209e-02 -2.4679533760283496e-02
      1.4353771138576302e-04 -3.1397086669207243e-02
      3.4845272414205174e-02 -3.4923237125000936e-02
      2.6146120702346499e-02 5.5139192599390291e-02
      -2.6071231605532114e-02 2.1175646489679997e-02
      2.0292502394175956e-02 -2.5047071301077081e-02
      8.6378576783937185e-03 -3.1609481511965118e-02
      3.4195276473978867e-02 -3.4100152010188761e-02
      1.8373386573868264e-02 4.4821689300912904e-02
      -3.2563683780971124e-02 5.6545803118420800e-02
      3.6628499336743059e-02 -3.3989205748173969e-02
      2.0732548494729389e-02 -7.4038305438738850e-02
      7.8015377391419144e-02 -8.4575392591780013e-02
      3.5949666093540660e-02 9.5083402646601201e-02
      1.5162356237419835e-03 5.0926804188393140e-02
      6.2674081956825847e-02 3.3429500370866519e-02
      -4.2303223824683031e-02 -2.3900801452490530e-02
      1.8872121917120118e-02 -5.7843347137147005e-02
      -1.9166727462794297e-02 3.2844715428192908e-02
      4.4974710459451134e-03 1.4093558244079145e-02
      3.8087306468693134e-02 2.1589181184264221e-02
      -3.9440831668569903e-02 -1.5834625545090865e-03
      1.3060588704077756e-02 -2.0819822626000552e-02
      -2.4405998831333264e-02 6.5578574654776445e-03
      -3.1157341815015633e-02 -3.8195841367263179e-02
      -3.9208665093569146e-03 1.3778520709658446e-02
      -3.9556795767055793e-02 3.0954650954691423e-02
      7.5416630325352854e-02 8.4476213824880610e-03
      4.5986959861629793e-03 2.4116777032463607e-02
      -1.1785790728738949e-02 -1.7375102078531504e-02
      -4.0120625063702620e-02 8.7672877026179676e-03
      1.7202640731567328e-03 2.3085596296687185e-02
      7.9773468642855630e-02 -4.3801606157394243e-02
      6.0426550387237829e-03 5.9612147811432849e-02
      -1.2315499329501071e-02 4.4852457193309565e-03
      -1.4991587678835011e-02 -7.4865568196014910e-03
      1.0696413496962274e-03 8.2017918279856522e-03
      2.7714847039745513e-02 -1.2336119982187414e-02
      -2.5787106966041807e-03 1.8512209947858817e-02
      -3.9918634416875071e-02 -3.7239207686205464e-02
      1.5879616159093269e-02 3.3672156252713449e-02
      -7.2795098227942376e-02 3.8498775893645643e-02
      9.6328904785375757e-02 9.1877903526619356e-03
      -6.7596678033579960e-03 2.1929197174455354e-02
      -3.1940548919894007e-02 5.3803234167130887e-03
      3.3734951290275816e-02 -3.4946789058950610e-03
      -2.8120826578558512e-02 -1.2346154027823861e-02
      1.4828251818568457e-03 2.8169135280899621e-02
      -1.4248091297045847e-02 -9.9307012723095275e-03
      -7.3194653532084500e-02 -1.3375807331849654e-02
      5.0084005431747701e-02 -4.0456986781109372e-02
      -1.9954312202910652e-02 -3.1553406421679267e-02
      2.5394786293519028e-02 5.3027894698833261e-02
      2.5032163259878878e-02 1.0607548045660093e-02
      -6.8893587292001526e-02 -1.0728141802250842e-02
      6.4040279555685503e-02 -1.3674604703510384e-02
      -4.2988473039463078e-02 -1.3898727034384686e-02
      8.5289149901700782e-03 8.5214161936142396e-02
      1.5356808327910744e-03 -1.5250707688477970e-02
      -2.8216311384890516e-02 8.8719021417379404e-02
      1.3097166814599973e-01 -7.4408795066067956e-03
      -9.3671998091302520e-03 -8.2824052082129146e-02
      -7.5132508661214875e-02 4.4856748668218406e-02
      -1.0734540627335094e-02 -2.7548453112582777e-02
      -2.3191786469136735e-02 4.7747182189236945e-02
      3.1751409048874454e-02 -1.4663384241493023e-02
      1.4572317048187748e-02 -7.0962975346770277e-02
      8.2851994660548850e-02 -1.0701465922971024e-01
      2.6932533008691761e-02 1.1065122830609354e-01
      -2.7797385076761834e-02 1.9301972666182669e-02
      1.8019626547000595e-02 -1.7789297502810286e-02
      1.1935097859023082e-02 -3.2772123465070475e-02
      2.8985871350201423e-02 -3.1650016772243765e-02
      1.9250238897620051e-02 3.4704938902686271e-02
      -3.3266602658907039e-02 2.3358557827189191e-02
      1.9759030665427522e-02 -1.9440245046895600e-02
      3.1942571258032101e-03 -2.7613072049621080e-02
      3.3702378397455067e-02 -3.0279642277405205e-02
      1.5167031031322466e-02 4.8994432578543849e-02
      8.2806148370117314e-04 1.9439107055026111e-03
      -2.9469042830215530e-03 -4.2409979739957250e-03
      2.6705110653801353e-03 -6.7869144386853110e-03
      5.3955527764426485e-03 -2.3643214796936775e-03
      -1.2234766193538820e-03 -4.6332012771613720e-03
      -1.8422822191506431e-02 2.5774717532797153e-02
      7.5276228567298542e-02 1.0082835102795782e-02
      -4.0327996262849504e-02 -1.8695479571199596e-02
      -6.6848163682875869e-02 7.0487899736973544e-02
      -3.1581667440055403e-02 -5.2200756766452590e-02
      -2.4582914600016315e-02 5.4362293635876156e-02
      1.0350752970180258e-01 3.2664114792645121e-03
      -1.0961869449737167e-02 -4.4022123980133152e-02
      -7.3071842557126496e-02 5.5536727460138283e-02
      -2.8656018295102090e-02 -4.4406663200480589e-02
      1.0875162649383336e-02 6.7650975482763706e-02
      5.2701541918056191e-02 -3.4651885096881704e-02
      5.7993447698548403e-02 -6.4849560536749368e-02
      -1.0637855014943808e-01 2.3435246284637588e-02
      1.0647441320913654e-02 -4.3371913698406456e-02
      -1.3141697564571753e-02 2.3856961844586404e-02
      3.8580563393835046e-02 -8.1512758838910657e-03
      -1.3353420144604281e-03 -3.8009002809810288e-02
      -3.1608573163753685e-02 9.3650372179524561e-03
      -7.7142942068145152e-03 -1.6194613829664348e-02
      -1.4123597770911142e-02 -5.3690840598773999e-02
      -9.0777377517142158e-03 2.2825630595372133e-02
      -5.1275522256990461e-02 4.3429169731528390e-02
      5.2536752310127284e-02 1.9665016041014970e-02
      -1.0180540285643924e-02 -2.8793139749857689e-03
      -3.6208597698437608e-02 -2.1445507377235121e-02
      1.6518200318385561e-02 5.9399698023762304e-03
      -4.6193241976327536e-02 1.0551063011037485e-02
      4.2270924637190559e-02 2.9488550162845274e-02
      -8.9356007308380187e-03 5.2392657705951058e-03
      -2.4029987226663184e-02 -2.3216374944675607e-02
      6.5226272896028656e-03 3.1628522780408012e-03
      -3.1786917306940103e-02 1.8354672975521118e-02
      2.7507872202453324e-02 2.1062653973319911e-02
      -8.0257818651828470e-05 -1.0109802457152326e-02
      4.5888187763713732e-03 -7.0565761574765103e-03
      2.7006285253849838e-03 5.5878330056907339e-03
      -3.0405442210635234e-03 1.5102424114196596e-02
      -1.0614305642220470e-02 6.8064840660233550e-03
      -1.3617424883025604e-02 -1.3167338073375986e-02
      -1.0498275466708205e-02 -9.3642240460727819e-03
      2.4339113842701470e-02 1.5625143873411719e-02
      -3.2561530064264675e-02 1.8221410035405557e-02
      3.7741606844559857e-02 -3.3010035867979287e-03
      -1.6500751007723958e-02 1.2121069829138706e-02
      -7.5090928152711484e-02 2.0530678856117854e-02
      9.7149575707411867e-02 -2.2794467157800542e-02
      -4.6586939507511339e-02 -4.6662393609257065e-02
      -2.6991998907343891e-02 1.0401823156969395e-01
      6.1691071525721113e-03 -2.6152947384780644e-02
      -9.0904072873612185e-02 -4.6281449476759343e-02
      6.2745700626324064e-02 1.1785284057539995e-03
      -8.2671194667261902e-02 2.2514060376937111e-03
      9.3628175506684411e-02 5.3237325515602646e-02
      1.1190673664192224e-02 2.8732142152854974e-02
      5.2084895135115342e-02 7.6967220163518188e-02
      5.5310461850465314e-02 5.1074494781833429e-02
      -1.8015473973792249e-02 -1.8837995107923246e-02
      -2.2891348366575359e-02 -6.6426040202563125e-02
      -5.8177455143500770e-02 4.0860605151174390e-03
      4.6670254369746665e-02 4.7156327760533107e-02
      7.0635930030055593e-03 4.4889235783255349e-02
      -1.5039919795707360e-02 -8.5552440215005687e-03
      5.1900927240766580e-02 -1.3373375292895950e-01
      -1.8654779640976518e-02 6.3527829540002592e-02
      -2.3545792983245099e-02 2.2698129807511649e-02
      1.9220452206130844e-02 1.8942032112536980e-03
      -5.4432499805547891e-03 -2.7241670246125723e-02
      3.8307551980656544e-02 -3.3346228419944328e-02
      1.3813917593247986e-02 4.6059269767946921e-02
      3.0655517302103754e-03 6.4782902783553980e-04
      1.4179908111463190e-03 -2.8199392542004893e-03
      7.6109489197072281e-03 3.9309984994396734e-03
      7.1746343166696168e-03 4.8957850800734753e-03
      -4.1985123511926060e-03 -2.0065252706008654e-03
      1.3791955312055270e-03 5.9936380611431443e-03
      -4.4486793229820600e-03 3.8627818040573394e-03
      -2.3882678619377077e-03 5.7626500728010681e-04
      -6.0911692582767702e-03 6.0268321040374264e-03
      1.7164225967804237e-03 -1.2406543494214157e-03
      -3.3817208115770617e-02 5.6858913693411207e-02
      9.7720436212991438e-02 2.3295442343613275e-03
      -3.8855280267670322e-02 -6.0246684481094187e-02
      -5.4646140127810112e-02 5.4349017301013575e-02
      -1.3120832736642760e-02 -3.7488022176567964e-02
      -2.5300320675088951e-02 7.5676568348324730e-02
      1.1662510709321519e-01 1.2593004547444306e-03
      -3.4861458944701149e-02 -6.6174857585714841e-02
      -1.1678433430393846e-01 8.8502720027985135e-02
      -3.6582561105840974e-02 -5.8164617017785997e-02
      3.5676771923983906e-02 6.4919297129507877e-02
      6.6189664115666097e-02 3.3472486919683783e-02
      -1.9922725756230098e-02 -2.8403375272094026e-02
      -4.3728815851967570e-02 -4.3917653706161436e-02
      -3.5613567084527724e-02 -3.2514608269016850e-03
      1.9954934334944486e-02 4.7116996658214595e-02
      4.4451341564053413e-02 1.0622374157393423e-02
      -6.7853001176804741e-03 -2.3197837289087385e-02
      -5.5747427260345407e-02 -2.5507475437954691e-03
      -3.1335616195043783e-02 -2.0547689355828399e-02
      -7.1314411536062021e-03 -1.2702987447088433e-02
      -8.7104503743914256e-03 1.0337507634730724e-02
      -3.5082521179540574e-03 2.3738295090094994e-02
      8.2322805816722310e-03 1.3411337920257010e-02
      -5.0043000256731751e-03 -1.0875464550119472e-02
      4.4845128287134876e-02 5.8475536455227690e-02
      -3.3892627033554764e-03 6.5163040492315985e-03
      5.2246987488058436e-02 -1.5152909505746806e-02
      -5.8365634603518082e-02 -3.7910452441752965e-02
      -3.4880489886606118e-03 -2.4617421902558830e-02
      2.9887334174406165e-02 1.3675600061944253e-02
      1.2154467495368959e-03 1.5124406807182073e-02
      -1.2176562855810105e-02 5.1165500473448651e-03
      -2.0896632237726701e-02 2.3897284989749580e-03
      -2.7454480208048960e-02 -1.6886226432852879e-02
      -2.3427558194406294e-02 -2.4380594158898299e-02
      8.0588539842609466e-03 1.1280092877878584e-02
      -3.8463115189790856e-02 2.9626348356428835e-02
      1.9650993736712662e-02 3.3647863579988814e-02
      -9.2571054799156140e-03 -3.0047704818883603e-03
      6.6616773308130215e-03 1.6990696479773304e-02
      3.0129743544700289e-02 2.2875794735878092e-02
      -4.2554661036024642e-02 3.9366602828964058e-03
      1.8902145680578009e-02 -1.8820244152999533e-02
      -2.8504718282939340e-02 2.1319413467337260e-03
      -5.8178664323568295e-02 1.2778825877998846e-02
      6.2439931512551679e-02 -1.6752930745620755e-02
      -4.0901555996838819e-02 -2.8175879834407995e-02
      2.3198040973313079e-02 4.0568934452045916e-02
      7.7406268620650543e-03 9.0356957331666349e-03
      -6.8373329065060356e-02 -5.8062807490207799e-02
      2.9531933072644040e-02 2.5692621670678401e-02
      -7.0250484810087041e-02 2.2178396276052639e-02
      1.0609728170178254e-01 1.6894322656419870e-02
      -8.6100700847953158e-03 3.9600288679174492e-02
      7.7089357262806399e-02 7.2718815489830030e-02
      3.8374429711906605e-02 7.2372496313435605e-02
      -1.3771749768553464e-02 -8.1380943820097038e-05
      -1.9579973134966316e-02 -1.0859253837518222e-01
      -6.0247800207364761e-02 1.4407683901443872e-02
      6.1328175153084342e-02 1.3191142178779106e-02
      -2.3266445857622085e-02 5.7890848258577286e-02
      -1.8537429030749095e-02 2.9316225584667566e-02
      4.6276761344020617e-02 -1.2425899702373458e-01
      -3.3685610184112751e-02 3.6493932663071861e-02
      1.8893430766059736e-02 -4.5939080556624051e-03
      8.2641697372849241e-03 2.7673173820380596e-02
      -2.7345734065027570e-02 1.2091857441012797e-02
      4.3714225339032643e-03 -1.5476496663864109e-02
      -2.8251192173408619e-02 -5.3835046819889593e-04
      -2.9752220534577586e-03 -9.6436797569311153e-04
      -5.6011689449378460e-03 -5.3634836766545870e-03
      4.2927497939043312e-04 -7.9608505107801506e-04
      6.1622200565476341e-03 -1.2990208300926625e-04
      5.8397703438448339e-04 -5.7391679359804233e-03
      -3.8137049997567082e-03 5.8068266524226742e-03
      7.7840226280942188e-03 -2.6153476856247502e-03
      -4.2437352527857167e-05 1.3290561104634575e-03
      -7.2021128889277908e-03 5.9464158742247100e-03
      -2.2627720492424072e-03 4.7338737659405371e-03
      -3.2739186250081903e-02 3.0262726292907827e-02
      1.2359579091380305e-02 -1.5527232260066352e-02
      1.1903275311042714e-02 -4.1238099588117645e-02
      3.3703525917830462e-02 -3.0154436445192848e-02
      2.0024949469371816e-02 4.9082193348254310e-02
      -2.6557146825430020e-02 2.5807541313387861e-02
      5.3068974498876625e-02 -4.0189836147941924e-04
      -1.7501676304550996e-02 -3.1049467957647989e-02
      -1.6958540353855821e-02 4.2290263410105548e-02
      -5.0920271536932455e-03 -2.1348984275613395e-02
      3.5112452974984061e-02 5.6804851680654418e-02
      3.9352672164964859e-02 2.1791865241348917e-02
      4.0832926701703876e-03 -1.6180987740494295e-02
      -3.3432457018045390e-02 -3.7736662149961596e-02
      -2.9633335210681542e-02 -8.0893941773819457e-03
      -2.4033273115332994e-02 -4.4970494019031066e-03
      4.5995840762614336e-02 2.4853757662654154e-02
      -3.9471825306468235e-02 6.2122318486574901e-03
      1.1010989563500934e-02 2.9770258665454536e-02
      -1.6380328358433758e-02 -9.2142705595045175e-03
      -5.2603400778390180e-02 -5.3206976271525923e-02
      4.6700615542681422e-02 3.4722474862425197e-02
      -1.1276372168022197e-01 4.7171946251750682e-02
      1.0307563555118589e-01 3.3584593546309660e-02
      -1.6396647142751380e-02 2.2144532750088312e-02
      5.9774155502195980e-03 -3.5339308783258604e-02
      -3.4065365019385528e-02 4.6487246500764856e-03
      -4.0915796533359016e-03 3.6672293045068659e-02
      2.5586203780160233e-02 1.5093565788707722e-02
      -8.7571852359888194e-03 -8.0849448985848994e-03
      -3.0274470025389308e-03 5.5811572683580907e-03
      2.4696717361975793e-02 1.1619445301874904e-02
      -1.0445351894232499e-02 -4.6059860927096293e-03
      7.5527498092530583e-04 9.5347786853904187e-03
      -1.0926900644853244e-02 -5.1747783333194811e-03
      -9.9696155202355155e-03 5.4189246687174470e-04
      2.0371947865874169e-02 1.6039816761890837e-02
      -2.9080144938798940e-02 3.6215948588973891e-03
      2.6472615226059294e-02 -5.1739849202833167e-04
      -1.0040842967688084e-02 1.0078600515181581e-02
      -1.0009550650386959e-02 8.5413118093753942e-03
      3.0261968067958351e-02 1.4989012343317220e-02
      -3.2378565511663918e-02 1.8637023028066795e-03
      3.1802677139412809e-02 -9.4839177896024734e-03
      -1.1902503579758019e-02 1.0277024107570738e-02
      -2.6191308117788064e-02 -3.3781600677959094e-02
      1.4597874476315402e-02 4.7911394720234250e-02
      -7.2518623104300337e-02 3.1253208426292402e-02
      1.0240249697827765e-01 -3.2229254005579945e-02
      -2.6483489294111751e-02 4.4330720330520219e-02
      -3.4116733967127756e-02 -5.7247543506084839e-02
      1.1625143286912706e-02 4.5974797558009373e-02
      -8.3042915488408267e-02 4.9601434688375724e-02
      1.1249757647149863e-01 -1.0945433770873359e-02
      -2.3396607525731215e-02 3.5627744319616711e-02
      7.4983209837131568e-02 6.2113384959810038e-02
      -9.2882413768667399e-04 5.4462313907665413e-02
      -1.0390204206375113e-02 1.1756866742292274e-02
      1.7193236571353630e-04 -1.2318898817824767e-01
      -5.2085291647850307e-02 3.4780431274058284e-02
      7.1702829979909635e-02 2.7745824173524085e-03
      -4.8151060813124112e-02 5.5730504203394322e-02
      7.6827403255931102e-03 3.8051227194069892e-02
      4.6002285656000383e-02 -1.1757817753480905e-01
      -2.7145590221435527e-02 3.7929629050856777e-02
      1.3448527051010616e-02 -1.4043125945180937e-02
      -8.4492545972338351e-03 1.5146967092997085e-02
      -4.2705185140497950e-03 1.3296193972089386e-02
      -2.2680657655456190e-04 -8.0187695699786754e-04
      2.8921399706595429e-03 -6.4471615556089294e-03
      7.2155296812319979e-03 1.0759417447057027e-03
      -7.0747041289939442e-03 2.2220266094001230e-03
      -4.9281362037198462e-03 6.8513651557144603e-03
      -7.6375633930985158e-04 1.7539865348486080e-03
      -7.5076025418000327e-04 -3.4016512744789000e-03
      6.0506344709769450e-03 2.4830124239665933e-03
      -2.5425294794111822e-03 6.0796842184637030e-03
      -6.9139290495644510e-05 -7.2945350089473702e-03
      -9.6436909044613406e-04 -4.0322334615557429e-03
      -1.2584612162433954e-03 -7.4903619790909247e-03
      -2.6563100966424929e-02 1.6197652106748815e-02
      1.7536030668364313e-02 -1.4206284141016726e-02
      -1.0103989927253271e-02 -2.5697678192476921e-02
      2.6605596165169488e-02 -1.7643696583886634e-02
      1.4889640859255310e-02 2.9066409699924963e-02
      -1.2597638576486712e-02 4.3269339043890027e-02
      1.5175646981729346e-02 -1.3855390816450342e-02
      3.3784336078866946e-02 -6.2045342417147993e-02
      1.2685218782188958e-02 -5.4262559632571088e-02
      3.1771817194524585e-02 5.6281783895307289e-02
      5.9229071304040301e-02 9.7115539318266969e-02
      7.3757123260661417e-02 2.6640910092151669e-02
      2.0933564927902975e-03 -4.4232712296064201e-02
      -1.1388766052628908e-01 -1.3078571542726814e-02
      -4.6184853169263428e-02 -5.9346342159218218e-02
      2.7756076319271707e-02 4.8076466204834134e-02
      2.9464442616659842e-02 3.6023998384519397e-02
      -2.5446988341938006e-02 -1.9308967088336907e-02
      -1.3383108664623207e-02 -4.7496355261417045e-02
      -3.4179124164470047e-02 4.8880896576266493e-03
      -4.1409072341501967e-03 1.6539361397475830e-03
      -1.0961958863763754e-03 -3.7694162314428586e-03
      1.4028736949768630e-02 3.4302120347633738e-03
      7.8619227006233201e-03 -3.2978459089693249e-03
      1.0110541026902464e-02 1.0894001652641780e-02
      -4.3866084973994560e-03 7.2531760892549837e-03
      5.4563361911981259e-03 -1.2465244755960227e-02
      3.0212907779176941e-03 -7.7852755686204610e-03
      3.4175024901934577e-03 7.7534421095572896e-03
      -2.7933768859829302e-04 -7.1515976809817527e-03
      -2.0888983446088567e-03 -6.5130741232340200e-03
      -2.1582814676198120e-03 -7.9220993189226697e-03
      2.7460663300518345e-03 8.4745775108795492e-03
      -2.7233348622789772e-02 1.2823034298194286e-02
      -3.0881087411874664e-03 -1.5700251503312015e-02
      1.1127462458729129e-02 6.4595546195196675e-03
      1.4755146097860210e-03 6.1121394032928513e-03
      -4.3120223681275211e-03 7.4270315354527609e-03
      -2.2293474428051402e-03 -8.4309532202858917e-03
      -2.4921453733279934e-03 -2.3078901034319210e-03
      -4.5066560500274036e-02 -1.4765254361255054e-02
      2.7159317363729021e-02 -2.5312864979858941e-02
      -1.0461914873417175e-02 -5.7445433744349123e-03
      2.9495626736936641e-02 2.2325284033864516e-02
      1.9754253127816389e-02 1.0011353792472153e-02
      -1.4390902333728283e-03 -4.7487613106767544e-02
      -3.1580080180981018e-02 3.2214385659500182e-02
      -2.0487099695508468e-02 4.6244836214578158e-02
      1.0230993771230491e-01 -6.2701573659852725e-02
      -1.1297028226313410e-02 4.0178718027289527e-02
      -1.2323156497874240e-02 -4.6546114870912529e-02
      1.5995761523769084e-02 4.9144000336910652e-02
      -8.2862897635587962e-02 6.1226140575629195e-02
      9.3914024410810745e-02 -2.3630545723843759e-02
      -3.2963576712597628e-02 2.6134649429419225e-02
      7.5613046051565241e-02 2.1202794158610795e-02
      -2.6562313594276403e-02 5.0811305174750736e-02
      -5.7514981516214930e-03 3.9524209008048074e-02
      4.7124562438228781e-02 -1.1738164598782785e-01
      -2.5410284579424011e-02 4.8937675408340792e-02
      8.3025577099410816e-02 9.4687679065379830e-03
      -4.0870008281716670e-02 5.8433986668330544e-02
      -2.9276092992913476e-03 5.0481952688089818e-02
      1.0730628476118581e-02 -9.7100967975184221e-02
      -4.5076050628781450e-02 6.7897955385195757e-03
      3.7182628063295868e-03 1.4214673159890727e-04
      8.7884870070585094e-03 1.3950232006911421e-02
      -1.4482837923681121e-02 1.2898056488872213e-02
      2.2730740277887429e-05 -1.4317680863249820e-03
      -1.7230394979568810e-03 -2.6156111191313880e-04
      -7.3962431248052749e-04 -6.5901261764026772e-03
      -7.5575613003832920e-03 -4.5066455125338601e-03
      -1.1243442663781580e-03 3.1879352335085300e-03
      6.4157466195390285e-03 -6.7150333636877418e-03
      4.3395293977778453e-03 -4.3278943387138457e-03
      -1.2864836290414326e-03 -5.8381233271983125e-03
      7.2150312851958802e-03 -7.1824779247532536e-03
      5.3203802534467735e-03 -8.3893901325181601e-04
      -3.1650221749082992e-03 5.0849602076961150e-03
      -9.2591964025193533e-04 -5.2383501628247998e-03
      1.6996273534280758e-02 -1.7093921953557349e-02
      -3.2239564678145080e-02 1.0519267668881414e-02
      1.5123917744858658e-02 2.1318929043978595e-02
      1.2851141150574542e-02 -2.5111526911100863e-02
      -3.0457453171960349e-03 9.8563820437049757e-03
      6.8309307766251479e-02 4.6553186652364888e-02
      -4.7285782080199887e-02 2.4738993335591446e-03
      6.3225175150210339e-02 -4.7841113615619190e-03
      9.4485726925210792e-03 -1.2888448704162386e-01
      5.3498712171781149e-03 4.3658437431950504e-02
      5.4188240091849658e-02 1.5954695896478441e-02
      -6.0076145070509623e-02 7.0989967065947547e-03
      5.3624129369355678e-02 7.7400800687476316e-03
      4.0252432821778629e-02 -1.2820299443861599e-01
      5.2805653249890453e-03 5.3763960052533907e-02
      3.6943369968665574e-04 7.3966142199072384e-03
      1.0626043576175161e-02 7.0481283931367825e-03
      -1.6296259986047158e-02 4.6868042235262367e-03
      -2.1427292076407839e-02 2.0215896760778337e-02
      -5.5218540277567254e-03 -1.8305506964016491e-02
      3.2170054539665286e-03 -1.5572932889178215e-03
      6.3958454616155186e-04 1.2386584506533346e-03
      -4.5783861701585016e-04 7.1776817874417010e-04
      -8.5252336705704135e-03 7.9571240518551325e-03
      -3.9937997523229124e-04 -2.5149569700147418e-03
      -4.5655088007249177e-02 -2.3973877701204731e-02
      4.0451344457044479e-02 3.2451634293720333e-02
      -8.4422153698530247e-02 2.0781245820011493e-02
      4.8215670261332721e-02 3.8512124531474644e-02
      -1.2977513701882843e-02 -1.0523231988716058e-02
      1.7471377463715975e-02 2.8139044633341187e-02
      2.5670876536618367e-02 2.8641416456538019e-03
      2.0494621478509084e-02 -1.6446295932183927e-02
      -3.3739917336944994e-02 -2.2584025231719131e-02
      -1.1490459889495812e-02 -9.5162419352160747e-03
      5.4740139774740376e-02 7.3214455622506988e-02
      2.1613109153943107e-02 -2.8382392540938018e-03
      3.9153390707908464e-02 -4.0232822029182380e-02
      -8.8249825425352188e-02 -3.9703971394612535e-02
      -1.6762062967757861e-02 -1.3657112279460553e-02
      3.4087635865711119e-02 4.2660912966960472e-02
      7.2993916305355826e-03 1.3182925444156288e-02
      1.8209848895847040e-02 -7.9126012233976875e-03
      -1.0332690981419890e-02 -6.4178635024491851e-02
      -7.7246047876103003e-03 9.5456458870133067e-03
      1.9535997443320668e-02 -3.4654291938577719e-02
      -4.0620976365595904e-02 1.7343826015732179e-02
      1.0669411479436572e-02 3.6947909282745113e-02
      4.1448621964069655e-02 -3.4595286451393800e-02
      1.2116311767546093e-03 1.7631539456245238e-02
      -4.1757127660866429e-02 -1.0641081106894944e-01
      -6.1394201765033678e-02 1.9821383786647540e-02
      -7.0786798854635777e-02 8.7772471269597113e-02
      1.5661861641460217e-01 7.0230097007817818e-03
      7.1781328524263190e-03 5.5222014566099632e-02
      6.7663489736863064e-02 -5.4224889554675424e-03
      -4.6609804697728567e-02 5.3154929816126857e-02
      -4.9041910057002359e-03 4.5635206304016691e-02
      2.9315968917944461e-02 -9.4457908432987528e-02
      -3.7881879834057566e-02 1.8027750962296151e-02
      9.5726454335824263e-03 1.9476187226269955e-03
      1.2420588978295601e-02 1.3726252991989632e-02
      -2.4446840471087722e-02 9.3487814109624720e-04
      2.4951844836726671e-04 -8.8757899044360634e-04
      -4.3890682390708658e-03 1.5503929779192142e-03
      8.2850805363108380e-03 -4.7146192160582370e-03
      1.1340278657509688e-02 8.3328612317695432e-03
      -2.5204963040437393e-02 7.2986105556529617e-03
      2.6810826563150943e-03 6.6400743941346589e-04
      -3.5882313141553145e-03 -1.0628769488499573e-03
      -2.2798670934375130e-03 5.0643272321623748e-03
      -6.2509543514043461e-03 3.6032413725043339e-03
      2.0046651406180650e-03 -2.6704842716725771e-03
      -1.7948864371138472e-03 -1.1143623070697852e-03
      -6.7512639182826771e-04 7.9055924973239228e-03
      2.4956800534612486e-03 3.8974912316476068e-03
      4.9394906884818359e-04 3.2999512559574642e-03
      -7.4340264050866229e-03 -1.0475483872928184e-03
      1.3567792962119012e-03 -1.5038251675330496e-03
      -5.8868751471571820e-03 -6.9723993427550741e-03
      5.0804599125985729e-03 7.1407698066196608e-03
      1.8226032429008129e-03 -7.3536952002379715e-03
      6.6201920448615904e-04 -5.4445210312653375e-03
      -3.7580459651861955e-03 4.2864208809752771e-03
      -2.8576606155435048e-03 -7.5713943858026827e-03
      4.6354977003088185e-03 -7.2537798171982268e-03
      -4.2066987628477236e-02 -5.3488948457642935e-03
      1.3445945370701843e-02 4.9231215264389193e-03
      3.4579661374362649e-03 1.4551838542203480e-03
      1.8434507712122915e-02 9.8024401249096238e-04
      1.8831792154252592e-03 -6.8445135311154287e-02
      -1.2648920049893791e-01 -2.3218466123140671e-02
      5.2265205900590105e-02 4.3822446249228562e-02
      1.1519953215923344e-01 -8.5635497869269980e-02
      6.2518845453180802e-02 9.4207162219607427e-02
      2.9631149066500169e-02 2.1005344036413073e-02
      -3.4391721620148988e-02 -2.1078167699590676e-03
      4.2861885216487094e-02 -8.7000087262620266e-03
      9.9115148036278272e-03 -5.8864661506732828e-02
      1.3550275295950860e-02 1.7619737416482616e-02
      -7.8134984003007720e-03 -1.2648425929597470e-02
      -5.7667592838488869e-03 -2.7104275354667019e-03
      4.3277134619087937e-03 1.5460797249998352e-02
      2.6387522799916203e-02 -2.5151601719410732e-03
      -1.5552300331355133e-04 1.0337710165361986e-02
      1.5746075580161608e-03 -1.4414816143119073e-02
      -1.4401502477694219e-02 -2.2457028128607406e-02
      3.7100125949704466e-02 8.8902338782265652e-03
      -2.2216005762090887e-02 -7.3060582766025842e-04
      1.4837560392160784e-02 -1.0465012517668914e-02
      4.4300558759298565e-02 3.4564474365751593e-02
      -1.1937791318071309e-02 1.1711885173733803e-02
      2.7566931674666253e-02 -6.9396670944718575e-03
      -5.4525440185975708e-02 -3.6286821778953496e-02
      -1.8877017480892349e-04 -1.7470883095327745e-02
      5.7056619306794482e-02 5.8876396616339859e-02
      -2.5605553852763086e-03 1.5487346484544932e-03
      4.5965715388313969e-02 -3.3295613854973233e-02
      -8.2396178834142172e-02 -4.5160595395837645e-02
      -4.9085162354362936e-03 -1.9036522695338599e-02
      8.5476044143190447e-03 -1.9782946127635620e-02
      -3.8701524562379283e-02 1.2557694759719970e-02
      9.4460682526648267e-03 2.5605557546022891e-02
      6.3666740134637273e-02 -5.5865133158487443e-02
      6.3683884355052048e-03 3.8148248112190759e-02
      -8.2169475498104702e-03 -8.0106335172541857e-02
      -6.7410496048197432e-02 2.7382536500517619e-03
      -2.1867687037761166e-02 7.2759100283962763e-02
      9.7515189347589307e-02 2.7651571509573402e-03
      2.0407625482248705e-02 2.6570202706560367e-02
      7.0949804327442171e-03 -6.2474312040865752e-02
      -4.3211714269071916e-02 3.6066865652833138e-02
      -3.9649325151994354e-02 6.8851876033298856e-02
      9.2923783342051688e-02 -2.4192395208971512e-02
      -1.6069133446338521e-02 2.3687328403321092e-02
      5.9767980500666342e-03 3.1113298309820010e-03
      -1.3266735257459752e-03 1.3347112521227873e-02
      -2.0711236384021628e-02 8.5205021638966628e-03
      1.2063961286062106e-02 -9.8284713032204610e-03
      -8.7068537165539365e-03 -4.9889501537414551e-03
      2.6893555059869382e-03 -3.6923781428254737e-03
      3.5133066636801168e-03 1.5584394638287967e-02
      -2.7492973031761861e-02 5.4656031570360028e-04
      7.0936655646183467e-03 -4.6340377705144089e-03
      -1.5969857092953555e-02 -1.7706834547940539e-03
      2.9578952152675623e-03 -9.6537341412069044e-03
      2.3222071208410331e-03 1.1256878786534955e-02
      -1.9426319636870706e-02 8.9069050807625439e-03
      1.2518668226045856e-02 -9.4340895654837810e-03
      -9.7553802775744388e-04 -4.2352755693963079e-04
      4.7064359150034889e-03 -3.7975229460019272e-03
      -8.3996798772127831e-04 7.0698105609033066e-03
      6.8938823483283267e-03 -3.9787275864243982e-03
      4.9450652180051402e-03 4.0943555961920628e-03
      -4.0776110560957373e-05 3.3126480556385399e-03
      -2.9353944781763692e-03 5.0004551867849096e-03
      2.1434781421905240e-03 3.3042008780126996e-03
      -7.2674270089306374e-03 5.2323757775146274e-03
      1.6836283829866790e-03 -3.0444724296419018e-03
      -7.1180509002651091e-04 2.6380669325159578e-03
      -4.0054378714217999e-03 -7.6979852071460417e-03
      -6.5318969304275377e-03 -5.6471890346781245e-03
      7.3563822924909402e-03 5.4223820033797330e-03
      3.1215216033881540e-03 -1.7937973648020804e-03
      6.2247528856200669e-03 -1.2457125737926964e-04
      -2.7287116745864700e-02 -6.6563738503871192e-02
      -1.6676380735984063e-02 1.4945811789466046e-02
      -6.5194170208059968e-02 5.5871649558209210e-02
      7.3613942396677290e-02 3.6673415171106200e-02
      6.9301665146271653e-03 2.9219803686880586e-03
      4.0223940182528374e-02 -8.3352481444944851e-02
      -1.4604315341225318e-01 -1.0956079210925030e-02
      6.8638476903362167e-02 7.9736599392973007e-02
      6.8263280416900954e-02 -5.4778925980675380e-02
      3.2325341245720042e-02 2.9796822311064192e-02
      2.4005208949200663e-02 -6.2246505942964506e-02
      -1.0840249690030544e-01 -1.9380654533449462e-02
      5.2773031538958862e-02 5.3954295715264125e-02
      4.9203064559620466e-02 -4.3196965024410894e-02
      2.9491359140875830e-02 2.3510962632288062e-02
      -3.0541770073709090e-02 -1.8564235063674821e-02
      3.1458328347265190e-02 -8.8716306632779605e-03
      -2.5707862424429018e-02 -5.5976213236961765e-04
      -1.6982309755649062e-02 5.9765823288160880e-02
      -2.5882824880571870e-03 -2.6464167752777268e-02
      -1.7368421838348740e-02 -8.9250740407556556e-03
      -5.6384925953897559e-03 3.8714049083377962e-03
      -5.3999318930194407e-03 9.3863474251036690e-03
      3.5214134815378641e-02 -5.4288551766822294e-03
      -5.2315064820064659e-04 1.9687942732228174e-02
      -4.3276352403362389e-02 2.9253134862563569e-02
      5.2874213222932197e-02 -5.1986426642215325e-02
      2.2181508750121929e-02 -5.2592029195960677e-02
      -6.7980590739243590e-02 8.5919530427181701e-02
      2.9994724743552813e-02 -4.1049927673057297e-02
      -4.9190746187504714e-02 -6.1154677195364125e-03
      3.7014186417516401e-02 -4.8878475622716529e-02
      1.9803001478882448e-02 -3.9644031780315912e-02
      -4.3005372831522712e-02 8.2485167701341608e-02
      3.2684348880428836e-02 -3.9399373362565021e-02
      -3.7324651250452145e-02 -2.8536373075450202e-02
      -4.2830330066218631e-03 -3.9874189427157522e-02
      2.9642738551693776e-02 2.8351410082262853e-03
      -1.2468456757107307e-02 4.8384569193564236e-02
      3.6527580597568138e-02 -1.8441199550664505e-02
      -5.9661654576355090e-02 -7.0497465676225474e-02
      -9.1474895180446176e-03 -8.8362381052799442e-03
      -4.4719321208258986e-02 4.1391536147137559e-02
      6.8108218007936289e-02 5.5689278812012424e-02
      1.5606578610080168e-02 1.0858373594612052e-02
      -1.2252294861863876e-02 -3.3535810956044437e-02
      -2.1751251163626018e-03 1.3807601782677712e-02
      -2.3034766394136336e-02 2.2851059762825938e-02
      3.2528859937176025e-02 1.8189012663950416e-02
      1.5697453481487444e-03 8.0360790813899310e-03
      1.0372130190102047e-02 -9.6045142345049031e-03
      1.3009705894345254e-02 6.8268163210498806e-03
      -2.1086127928778502e-02 1.1349987710123738e-02
      5.5965393100679941e-03 -9.0129353664474554e-03
      -1.5174734185348432e-02 -2.8981846172470974e-03
      6.4774557500492961e-03 -1.7421149419342931e-03
      1.1857875443563166e-02 2.1425904696244748e-02
      -1.8793870320393639e-02 9.5653221808910619e-03
      1.0553761038260178e-02 -8.0901857968384214e-03
      -3.6070863397532080e-03 6.6113694728664229e-03
      -1.0696265029723991e-03 -4.6035024763520912e-03
      -9.7323426122553373e-04 7.8953559306271532e-03
      -1.4985390652036192e-02 8.3193047020536006e-03
      2.2713681399123953e-04 -1.0560971055159924e-02
      -8.7297873317847014e-03 -3.8769284372936800e-03
      -2.3769374841562736e-03 3.5217773171209057e-03
      -4.3319255097206385e-03 6.8590454612778243e-03
      6.2480477222412508e-03 2.2223728731743729e-03
      9.2587732481625253e-05 1.7061591025803813e-04
      6.4182353896599965e-03 -9.7592748131561911e-04
      5.7816530742554146e-03 -3.7017098398802848e-03
      -8.0913678141050890e-04 -3.3786830976804167e-03
      -2.9594749356634245e-03 -6.1817063451125856e-03
      7.7604377560039567e-03 -4.3049638842514483e-03
      1.4411542382657297e-03 4.4245074503816272e-03
      1.6691843062681146e-03 6.7252353410157941e-03
      2.5973317763271747e-02 1.0965457047634892e-02
      -3.5354837077140731e-02 -1.2261912792679823e-02
      1.9142807854077289e-02 -1.9716162055180590e-03
      -1.1542702891522139e-02 1.8572785289731115e-02
      3.5023821469997767e-02 -5.4549279151683812e-03
      -3.6125034482304454e-02 4.2899909495361911e-02
      -1.0815540562240537e-02 3.4149631785474782e-02
      3.0011053630540102e-02 -6.0850602542951764e-02
      -2.1385676038332659e-02 2.0170523402797947e-02
      -2.9009872276696221e-03 -5.9099429508608983e-02
      -3.3915163275966755e-02 2.8232380423211752e-02
      -5.0647947063712929e-02 6.8090237997405934e-02
      6.0777684100230087e-02 1.0941558737156371e-02
      -1.3100299141884207e-02 3.7308504267733033e-03
      -2.2674074937588877e-02 -2.9078129617988054e-02
      -2.8158384143341965e-02 -2.8839970616325098e-02
      3.2946117630314020e-02 1.1396782356331103e-02
      4.6469323787161109e-03 4.4501793738015390e-02
      2.9365732672373836e-02 -5.0689110414708291e-03
      -4.7529341699449256e-03 -1.6343162294883605e-02
      1.6047191986432435e-03 3.3358249399155336e-04
      -4.4967609862096104e-04 1.1548173326618756e-02
      -7.0730876722063995e-03 8.6893220846369600e-03
      -5.1983255592879668e-03 -1.1870412592802339e-02
      -5.2320620977197467e-02 -1.2519587759900695e-02
      3.0325718985369874e-02 -3.3389824746961387e-02
      -6.3700860470838746e-03 -2.3578682670828157e-02
      -1.2985513104520473e-04 5.4981416530834222e-02
      2.4009444338902442e-02 -9.7085765268972758e-03
      -8.2153011998106262e-02 -1.2233780482932563e-02
      4.4747872659935309e-02 -6.3082011233664068e-02
      1.6272336023589899e-02 -4.7274734150493623e-02
      -3.3720621133903554e-02 1.0321247864355529e-01
      4.9097451289607207e-02 -2.9264903278834121e-02
      -2.2244856352421682e-02 4.0808982791902489e-02
      4.9908458395382486e-02 -3.7462159309238040e-02
      2.4691782228916017e-02 -6.2242118515814224e-02
      -5.6368382463357222e-02 2.5859584824508782e-02
      1.1648136101461334e-02 -1.8241162380609875e-02
      -5.3670106794703555e-02 -5.9052012798563758e-02
      -2.4462404305550543e-02 -3.8893719604366071e-02
      5.4513741300569914e-03 8.3530371848620447e-03
      3.6254879981431495e-02 6.1320044917616619e-02
      2.9819760534821400e-02 4.4029485437781062e-03
      1.1631328628145711e-02 -1.8669408395567198e-03
      -1.1605130776749766e-03 2.1928043691987135e-02
      -2.5241309794791798e-02 8.5899616909913355e-03
      6.9157513769654210e-03 8.4386657377010551e-04
      -1.0722395965283784e-02 3.2464857497346253e-04
      -6.9638955445471213e-04 -6.3290488838844017e-03
      2.4578511354616845e-03 1.1110921617782614e-02
      -2.9188198962319049e-02 8.6943351612622632e-03
      1.6275350302350350e-03 1.8803099781227483e-03
      -1.4973932612099347e-02 6.8645708263966035e-03
      9.8721514358610079e-03 -3.7821020963971874e-03
      8.5893693233258499e-03 2.0073272314723296e-02
      -2.2888175303044163e-02 -2.7201672275465303e-04
      7.0507167413472157e-03 -3.8291374187554915e-03
      -9.6513515942648672e-03 1.5982912190535335e-03
      7.3572537141629421e-04 1.7878742491663916e-03
      4.8092397462625239e-03 1.8175726944046473e-02
      -2.1215108241348986e-02 6.6081272744489324e-03
      7.4429755501412764e-03 -7.3037487558817631e-03
      -6.9923123407671364e-03 1.1712614187565679e-03
      1.3595020465801402e-02 2.5234615135012579e-03
      6.5184117334606880e-03 2.1141157569447552e-02
      -2.3001710186650898e-02 6.7979769898750264e-03
      2.3073258564664761e-03 -5.6304980610100653e-03
      -9.2557479763894345e-03 -7.2367745085884913e-03
      4.9960385370536658e-03 -2.7717138455625277e-04
      6.8691435426626946e-03 6.4558144141093473e-03
      -1.6158442483471620e-03 1.3174160445427352e-03
      -3.3629869911794932e-03 -4.3708156971599740e-03
      7.3954496205729317e-03 7.2159016718838830e-03
      1.1311370695805340e-03 6.7964086492676452e-03
      -8.8942639672712101e-04 -5.4395887673253634e-03
      -9.6302266855140132e-04 -5.5100455872946130e-03
      7.0092724960425486e-03 1.4287333810335688e-03
      -4.3197597004167277e-04 -6.6416165977048114e-03
      -1.4036848595834293e-03 2.1087339088121924e-03
      8.6073862823889992e-03 1.9392338089843000e-02
      -2.7290638964513590e-02 1.0469590025648677e-02
      -1.0255162847570218e-03 -1.1544344077045306e-02
      -1.3917750934059182e-02 -1.6814583284111893e-03
      6.9251607031607255e-03 -1.8238960625449194e-02
      -2.5128575934109991e-02 1.5474332744307828e-02
      1.1299833624970418e-02 2.6050302566706183e-02
      2.3459719403335268e-03 -1.5595266484530582e-02
      -2.0622907653780245e-03 -4.6327813569274346e-05
      1.1183868522207265e-02 -2.0523366044163834e-03
      2.9912617426787462e-02 1.3622532576981596e-02
      -1.6874431438912419e-02 -1.1651857263751063e-03
      -2.0017193835513290e-02 6.1125208171530681e-03
      -1.0624440848187597e-02 -1.6142556416079538e-02
      -2.0408025147842311e-02 1.5695771070385747e-02
      4.7408978465891788e-02 2.5478275152465635e-02
      -5.1418625888007559e-02 -7.9734871535001670e-03
      5.5103297710365580e-03 2.2781474015781757e-02
      -1.4028938630068780e-02 -9.9139177497508130e-03
      3.7011468590277083e-02 4.6773456300147107e-02
      1.2428708583367397e-03 -3.6132826224744862e-03
      4.8917986631192220e-02 -3.4375381111311644e-02
      -2.0815729794407236e-02 -6.9989850433196721e-02
      -1.2987751324284658e-03 1.9147555955714921e-02
      -2.1437931114495459e-02 2.4050887825809549e-05
      1.9925977368030822e-02 -2.5572162133569661e-02
      1.1563306201273866e-02 -2.2140551313225478e-02
      -2.6408874724686456e-02 3.2570430672667121e-02
      2.0501730523889462e-02 -1.6464525148452980e-02
      -7.3203743478855512e-02 1.4912605810505401e-02
      7.1200681819855213e-02 -3.3420862314385347e-02
      -2.8679486884931240e-02 -4.7189958036631355e-02
      -2.4489879158778424e-02 1.1131382402163204e-01
      1.5581123594461420e-02 -2.1735273992590384e-02
      -7.2958130791496822e-02 -4.3091996184956204e-02
      -1.4990591986085326e-02 -4.9203062907870590e-02
      8.3673444494474589e-03 -4.0487068107061012e-03
      5.9039894512127628e-02 4.5133358331744200e-02
      5.3062052587244307e-02 2.0507110600546573e-02
      1.0935411829043208e-02 4.3543209125824503e-02
      1.6566359411696274e-02 -2.0678332649325427e-02
      3.0526020506183593e-02 -3.8877492251096414e-02
      -5.5562242882805785e-02 1.3100813813832433e-02
      3.9684700043209420e-03 -1.7782803483542917e-02
      3.5967373288020733e-03 -9.7544693021137698e-03
      -1.4847108604626100e-03 1.7356927275829364e-02
      -2.7798025348277043e-02 1.9016885548461316e-03
      1.0057356304497386e-02 4.5682856126617199e-04
      -1.6234695796191138e-02 2.8593991396659367e-03
      1.0840674225087565e-02 -1.2939157609239334e-02
      7.7243480362729558e-03 6.9784704743075937e-03
      -2.5902918316286799e-02 8.0636886605415323e-03
      6.5223810331453110e-03 -5.4275443372364214e-03
      -5.8517557760352831e-03 3.3015627736076164e-03
      6.1016654030872893e-03 -2.0447799015556583e-02
      -1.4680172597772330e-02 5.7250920064884220e-03
      1.3748131757891326e-02 1.9097264858939693e-02
      -1.1258339238047393e-02 -6.9755172584127336e-03
      -4.7305274385742949e-03 -1.2814768620080090e-02
      7.7718818452928587e-03 3.2501173100810085e-03
      3.1449304322445169e-03 1.3808842694026940e-02
      -1.9971632046576475e-02 -8.1097480765990250e-04
      -2.0674652146347255e-03 -7.5098622613998774e-03
      -2.3456771249609487e-03 6.7474863599140860e-03
      9.7425620193274554e-04 -1.0724671468249434e-02
      5.1771433688701015e-03 1.0865948949300644e-02
      -2.5722583013689279e-02 9.3974575023337559e-03
      1.1505278914991909e-02 -6.9614811969667218e-03
      -1.5548257298992329e-02 -3.3214320313340825e-03
      -2.0197483120142647e-03 3.5797605869405977e-03
      1.8607980242906204e-03 5.5333468530369741e-03
      2.7721856439164292e-03 2.5690411708834816e-03
      -2.1413003004783159e-03 -7.4264267096623713e-03
      -3.5749772484020763e-04 7.1550199939717039e-03
      -6.0046190458280151e-03 3.1618030713524447e-03
      -8.7700682757144016e-03 -5.7860118692730673e-03
      2.7608035133427130e-02 -1.6674462863405681e-02
      1.6238732729074810e-02 -2.9805517523105524e-02
      1.3382631170618442e-02 1.9653902213388259e-02
      6.6054276457948443e-03 -2.0234358602531258e-02
      -1.3212403672827912e-02 3.0924648359685844e-03
      8.0792591928994153e-03 1.7960742720533010e-02
      -7.0132929734955914e-03 -8.1880409091743701e-03
      2.1415442765671589e-03 -1.1154701805446124e-02
      3.5642024779640374e-02 7.0913455233228388e-03
      -1.0193645270198117e-02 4.1734177244618059e-02
      -2.6889122748353603e-02 2.4430360041599406e-02
      2.8000823087586318e-02 -5.7943075605062226e-02
      -2.4132031906824229e-02 2.2976978185960065e-02
      3.0170720092429906e-02 3.8251771608018494e-02
      7.1204399261021692e-02 6.0531716772967252e-02
      -4.8364770489390634e-02 -2.7112559046033383e-04
      -7.6040788719446473e-02 1.2839004106174886e-02
      -6.0808087046122866e-02 -4.8155232555189380e-02
      -9.8531149075684055e-03 -7.5227983679954135e-03
      3.7072602970622467e-02 3.1520009630104602e-02
      -4.6846389384106735e-02 1.5723461545415401e-02
      4.0531533973814544e-02 -1.5991423634549678e-02
      -2.1128545775889331e-02 1.5435565359942484e-02
      -6.1147081707428929e-03 -2.2600142869744540e-02
      1.3220547604175728e-02 1.9129196906367860e-02
      -2.5627066179987945e-02 1.1179289131842133e-02
      1.0641599462437801e-02 1.8292491659694057e-02
      -1.0942025649559034e-02 -9.5560300053253373e-04
      -2.7721425040285054e-02 -2.3662432804582686e-02
      -3.2822027875719965e-02 -4.1001291272206565e-02
      5.8946098163408005e-02 -7.9047602147354207e-03
      9.0583018060290954e-03 1.1754642356296672e-03
      4.4214427039674632e-02 2.5418154581762300e-02
      -7.6714474064304997e-02 -1.3097176222022611e-02
      2.4667282894975440e-02 -6.5423199948820634e-02
      2.3052114143438985e-02 -3.5850662028312441e-02
      -9.2101075789785321e-03 7.5599767853640684e-02
      4.2451874016094161e-02 -1.0141965416296406e-02
      -4.6603933917731044e-02 -2.9043519639596657e-02
      -4.2182089558306712e-02 -5.6977388849714594e-02
      3.7192565135577407e-02 -1.4222516508769446e-02
      3.6183878579462515e-02 2.4822214112296938e-02
      5.5029725681208792e-02 2.3090900692377143e-02
      1.4038274159640617e-02 2.3463409887983410e-02
      1.0986637443746106e-02 -1.0974639950111697e-02
      3.1255244997844496e-02 -1.5321458790866122e-02
      -5.4146398682205069e-02 1.0132655164745740e-02
      -6.4456507457931207e-03 -1.6676034483560899e-02
      -9.7197932748983472e-04 -1.1474297580854963e-02
      2.2165226091470300e-03 1.6920168256248813e-02
      -1.8846468390418800e-02 5.0390718521668692e-03
      4.8517280512083089e-03 -5.3525411077534951e-03
      -2.3821523966183304e-03 -4.0444646091688559e-04
      1.1383814473338921e-02 1.9988008952821590e-03
      2.6080860481476325e-03 9.2204843452690245e-03
      -2.1201310686421650e-02 1.5248301841571232e-03
      6.4044027335162452e-03 -3.3293295276345006e-03
      -4.4345958541934264e-03 2.9017793362194140e-03
      1.0987881124967723e-02 -6.9960238264317760e-03
      8.5136197742466304e-03 1.2980638676842881e-02
      -2.6774719509166135e-02 9.4858315343033135e-03
      -2.1002183991387807e-03 -1.1040642605713136e-02
      -4.2301009005162099e-03 -6.5943763913115802e-03
      3.8549599644308883e-03 -5.8505407950746611e-03
      3.6241964956846137e-03 -6.1170335679968666e-03
      4.0707662460277606e-03 7.2130421066959917e-03
      -6.3883810475652694e-05 -9.6171653550202992e-04
      -3.3694624000358809e-03 -7.4618723210381072e-03
      3.9286390725235196e-03 1.4613415558983692e-02
      3.7948860660957828e-03 -2.1527742555605763e-03
      -1.5868688349240682e-03 -1.5156237569431467e-02
      2.9604716576588200e-02 -1.6971827616288043e-02
      9.2873292098485348e-03 1.5310629727660490e-02
      -1.8110509185789391e-02 3.8172515428888103e-02
      5.5589321792131649e-02 -7.8656378971875846e-03
      -9.9764529370172314e-03 -3.7192429873355658e-02
      -4.6257884185802546e-02 3.2389076946282257e-02
      4.8168013099872085e-03 -2.8698312910533451e-02
      1.6188664132887151e-02 3.2246654241385474e-02
      1.1056764514995588e-02 8.5953237877199346e-03
      8.6577448162865073e-03 -3.5805497390646798e-02
      2.9019195762026349e-02 -6.9200334336370434e-02
      1.1448836628291633e-02 4.1181098254639517e-02
      2.2338133946320355e-02 -1.6495322252632557e-02
      -1.3242878974996890e-02 1.4252013184992161e-02
      -1.5883186777944376e-02 1.1000726724389637e-02
      -6.7992733769399233e-04 -1.4537186947631241e-02
      -7.8464697582835610e-03 3.6842333682941628e-03
      6.5514583552877689e-02 -8.4737965074804834e-03
      -4.1557093007345759e-02 3.5102978783672682e-02
      5.0808775524713396e-03 4.2357589415402928e-02
      2.3733601887907331e-02 -7.1869363741320524e-02
      -2.7085408319317831e-02 1.0481894744633990e-02
      3.8930359507852751e-02 1.6198181844899674e-02
      5.4393506814974868e-03 3.0302515680745153e-02
      -1.0880832144126391e-02 1.4211364900242532e-02
      7.7103430938145557e-03 -5.1874563888922504e-02
      -2.5467302589449188e-02 1.3419498100877381e-02
      -1.0104924076576732e-03 -3.9996511569549854e-03
      1.1799512206835486e-02 2.5499070474261972e-02
      -4.9137206742749830e-02 1.0309409079183318e-02
      6.2716052488143520e-02 -5.3264746688020746e-02
      -2.0289828247317392e-02 3.8155503951489061e-02
      -5.7394353326478235e-02 -1.3238358103646149e-02
      2.8875485233931134e-02 -1.0023759315098527e-02
      -3.0316388984988212e-02 -1.5310264011272041e-02
      3.7707566013321960e-02 3.8575424967178466e-02
      1.9303972100717708e-02 1.5609379040530022e-02
      -1.7793642789726786e-02 -1.2570658975025099e-02
      -9.0756023037864512e-03 -1.1365584941138094e-02
      8.0712034066755464e-03 -1.1684299907709977e-02
      -7.2972086675663489e-03 3.5609848190396455e-02
      1.4846434939961085e-02 -1.3709159588272079e-02
      -4.0126139827023712e-02 -1.2084938753243584e-02
      -2.3770291320963328e-02 -4.8954073151456473e-02
      4.8954490322648071e-02 -2.2993125339386123e-02
      3.2543258841948856e-02 -7.4892163389328329e-04
      4.8001429576617863e-02 4.0741962860471430e-02
      5.7373992594483565e-02 5.1394476034153126e-02
      -3.2815163715010011e-02 -5.4019453748950945e-02
      1.1285788753749065e-01 -4.6412143516498749e-02
      -8.2492870145276204e-02 -5.4314907084856270e-02
      2.7934975460585255e-02 -2.4441381895323440e-03
      2.3279573576624201e-02 2.5421393198077364e-02
      2.4088021417753972e-03 -4.3935752416366710e-03
      3.4992006420391325e-02 -2.2464414291814477e-02
      -4.4310326459568103e-02 -4.4792063512517841e-03
      9.6167168142426271e-04 -1.3553457132677029e-02
      3.5034705626058667e-03 -1.6225219272238987e-02
      -8.1266828829179988e-03 -2.1067521812986718e-03
      9.8167371635909644e-03 9.8763903148472217e-03
      -5.0587033850685928e-03 -4.6587464995357232e-04
      -7.0888137864565477e-03 -7.2515210412250506e-03
      1.1652186251953670e-02 -1.1962848845616818e-02
      1.0845066312767413e-02 2.1093990431810726e-02
      -2.5498216170755213e-02 6.8412428516412410e-03
      -5.1796030045366112e-04 -8.9776042906567037e-03
      -3.2335009739345045e-03 5.5390551432172438e-03
      1.6950019334647972e-03 -2.3439935759790000e-02
      -2.2217437292812045e-02 4.5467640738315451e-03
      7.5582555195931730e-03 2.1007871252459183e-02
      -9.6429545337824683e-03 -1.0560775981696699e-02
      -5.0363288639879190e-03 -6.9999518005619361e-03
      2.4704584695509714e-04 -1.9243588865965302e-02
      -1.7145751730404789e-02 -5.5726100135769733e-03
      1.8623929859839673e-02 9.9388598510930255e-03
      -8.9348296720732703e-03 -3.8719692237941437e-03
      1.1266597150470561e-02 1.8558956040765427e-03
      -2.2677790850513097e-02 3.9235016155076477e-02
      6.4591365577132770e-02 -3.2956990514279565e-03
      -7.9657127086923425e-03 -5.4333086837407479e-02
      -3.0711581348670743e-02 2.5969022408860488e-02
      9.0441931271300572e-03 -1.2708886224419090e-02
      2.2305654745632734e-02 6.4992723244691894e-02
      3.1442665067460115e-02 -1.3821431790933373e-02
      3.6995079410107955e-02 -5.0074122721960330e-02
      -4.2535144971795592e-02 -5.3554093950855058e-02
      2.6843930869142737e-03 2.0011498252544571e-02
      -1.6303281194384088e-02 4.2013609218198751e-02
      3.1069802588913988e-02 -2.6755404846283207e-02
      2.7775787580524024e-02 -5.1339259753125373e-02
      -4.3907843868745210e-02 1.6428181267958360e-02
      2.6953954580096386e-02 -9.3943265748755566e-03
      1.5328137087651321e-02 -6.5958574646152760e-03
      -2.7255382540120137e-03 2.8582743228881206e-02
      -1.0568318071524620e-02 1.7164211783921534e-02
      8.4848540533443706e-03 -3.1529000498484436e-02
      -1.4458502109583634e-02 1.1455647017317170e-02
      -3.1520478964213797e-03 1.3229144225336546e-02
      4.3127977476089797e-02 1.6260345370292747e-02
      -1.3683758503656582e-02 3.0675017269587322e-03
      -5.0072996254553498e-02 4.6365121606053820e-02
      -2.1019594036131219e-02 -4.8423828548693648e-02
      -5.0323091208270075e-02 -6.2153020985928960e-02
      1.2124783454744202e-03 2.4627931073995346e-03
      -4.5999807580638860e-02 3.9730231366119008e-02
      4.5817962357238277e-02 4.9414090736316585e-02
      1.4997512766189271e-02 2.9334736322035940e-03
      -5.5840547083122395e-02 -5.6259216777482498e-03
      4.7758083574055851e-02 2.1687760832208225e-03
      -5.1013723555186755e-02 -1.1016469587438424e-02
      2.7538740542932497e-02 3.6798724589625680e-02
      1.0603116595453481e-02 1.2860915444822668e-03
      -9.9269244079807847e-03 2.4577567648239800e-02
      4.3044283138374856e-02 -1.6185333463570242e-04
      -1.2992180191755342e-02 -2.9056082942750711e-02
      -5.9556986406844158e-03 -3.9484253910494673e-03
      -2.2080659307912548e-03 -4.5971204557089355e-03
      -3.5396743160026584e-02 3.1535780513722092e-02
      3.0194106637702570e-02 -2.7128159418378830e-02
      8.3532683102983604e-03 -5.9498653484454767e-02
      6.2653226324369091e-04 1.8982581416481552e-02
      3.2634081176055381e-02 1.3927131279219804e-02
      -7.4316615425241844e-02 -1.5919869078418417e-02
      2.3725048961820570e-02 -5.6204038551833577e-02
      1.3981326508141011e-02 -3.9177096217831719e-02
      1.8815588823387734e-04 8.1777062659670122e-02
      3.8788557358360884e-02 -8.5304279912675092e-04
      4.7280430073193290e-02 5.5197856206615249e-02
      -1.8291274026332703e-02 -3.2859361076221200e-02
      8.6884358313456131e-02 -4.8198383308044615e-02
      -8.7224780662763346e-02 -3.8735270231372687e-02
      1.0865646441953706e-02 -1.8505935467269544e-02
      1.3725388337937464e-02 -1.5650418649210282e-02
      -1.6211049992136795e-02 1.3997991680207720e-03
      9.0165369517139701e-03 8.8370792271699854e-03
      -1.6132817488341503e-02 -3.3951264397935311e-03
      -4.5061083492640500e-03 -1.8466605430431382e-02
      1.3245455162805793e-02 -1.1996709449388281e-02
      -1.4637648509728582e-02 6.4837993577851710e-04
      8.3490594103775451e-03 6.2069450241791276e-03
      -6.2813687600642154e-03 -9.0500115058437507e-03
      5.9564320581444469e-03 -1.7490376790007242e-02
      1.2563815941755915e-02 4.0989226891699855e-03
      -1.5895879145629618e-02 2.0569260102923708e-03
      2.4010348032694449e-02 -1.4396111882328724e-02
      3.3972185225578398e-02 -6.3200948917476268e-02
      1.2405473911921063e-02 4.0926710098256484e-02
      1.0539428072287164e-02 7.1706733483341339e-03
      -5.0114552482927732e-03 8.5966687752657579e-03
      1.0110568509123103e-02 -7.4741366170489156e-03
      8.1129642696411500e-03 -3.6215454068438097e-02
      4.4519178721571873e-03 1.6885877282577590e-02
      -1.4967682363572370e-02 8.9878461010785230e-03
      1.1530715998158192e-02 -1.5925343689945123e-02
      2.4435450132731761e-02 -2.0844227105708872e-02
      -2.4892205635627326e-02 7.3807687872191399e-03
      6.7637378748667491e-03 -1.2045544913520211e-02
      2.0731992963334597e-02 5.2930505763057641e-02
      3.9719937191735541e-02 1.3519649343810232e-02
      3.5114280819454344e-03 -3.7754287142058314e-02
      -6.2384964527055879e-02 2.3775568245677141e-04
      -1.8920480638832823e-02 -2.1960462009016444e-02
      -1.1843449028240724e-03 4.6069898150379388e-02
      2.0851141862195329e-02 -1.9825603432298881e-02
      2.9704145936183451e-02 -4.7255479237040057e-02
      -1.3998076695421262e-02 -3.5745839571667846e-02
      1.4359487097222253e-02 1.1894153060991225e-02
      -2.6093252582110073e-02 8.5704439197938007e-03
      1.1196139675926550e-02 -2.4927210848519364e-02
      1.8058499095828864e-02 -2.2505877359930537e-02
      -7.1317931057981940e-03 9.7016103846331910e-03
      3.4071293117915166e-02 3.3707397839433531e-03
      7.2293395550026632e-03 1.2442005750892075e-02
      -5.3192109885952285e-02 -1.4744181932563962e-02
      6.5851356244498432e-03 2.2056823817645590e-02
      1.8662665048268839e-02 -3.0336256185846504e-02
      4.3918296802997817e-03 -3.6962192951094635e-03</_>
    <_>
      -4.9274808194406922e-01 2.2823547867485368e-02
      -2.5319851645918490e-02 -1.1657829946250180e-01
      -1.0367919527765354e-01 1.5209843151374416e-01
      -9.8222381249138555e-02 -1.3950568675334890e-02
      -2.7080423181326441e-01 -2.9982779866831655e-01
      -3.0036941312697962e-01 -1.0544234694334538e-01
      -2.9728147564796903e-01 1.0312970351093968e-01
      -2.6182993725787218e-01 -3.6210562497994819e-01
      3.5796136579835802e-01 -2.3483882562550534e-01
      5.7685253291813683e-02 -1.5588551343279874e-01
      2.7407483270974536e-01 -2.6356107341813723e-01
      -3.8435418945042149e-01 1.1128079350116042e-01
      -4.3929423352062534e-02 -2.4407357042013916e-01
      3.2177879192501685e-01 2.1476317745431947e-01
      2.4273941713626981e-01 -8.3929677505809874e-02
      -3.0842693572622010e-02 -1.4221457040548841e-01
      1.9128930612445852e-01 1.3703412023902026e-01
      -8.9798114024679548e-02 5.2358172468641745e-02
      -7.9652036087995530e-03 1.0831042584394425e-01
      -2.6229794359160924e-01 -2.8558206597927854e-01
      -4.3035923389855990e-01 1.4749779133266830e-01
      -6.1451713626776920e-02 -4.3287192953162840e-01
      -8.9887910461301804e-02 8.7835119126373623e-02
      -3.8092904184374048e-02 -3.8618667995962092e-01
      1.5456247363391451e-01 1.7085638400118780e-01
      1.4474148305959345e-01 1.0878023220879876e-01
      2.9911108450153651e-01 1.8484369674101803e-02
      2.7693210700885068e-01 3.3330196761178943e-01
      -2.9801645025371754e-01 -3.3338102218241773e-02
      -3.2682203740961185e-01 -1.8660797850618907e-01
      6.4802343485590538e-02 2.1190147681501950e-01
      6.4079362325349498e-01 5.1928309682688567e-01
      2.3361417024253428e-01 8.2918628926385754e-02
      1.6122372623957365e-01 2.6775558209052125e-01
      2.3525977647638956e-02 2.0588640840319691e-01
      7.8295677190709978e-01 -3.8858240705365497e-02
      -2.3649387163312496e-01 -3.4684701807486390e-01
      -1.2416115327640299e-01 -7.2607217802949389e-02
      -3.2208846985420403e-01 1.4903895428363742e-01
      1.3920076096090611e-01 -5.3772204811037685e-02
      -4.7122944551805074e-02 9.7051012745690488e-02
      -1.9380624888966937e-02 -1.2120489511153679e-01
      1.1743766763084562e-01 -1.2689850647406950e-01
      -1.4229621821744181e-02 8.3749829518767235e-02
      1.5784555041843834e-01 3.4637963086744034e-01
      -2.4192525584051056e-01 -6.9436631868870627e-02
      2.7980907982837522e-01 3.8580970110519641e-01
      -3.3776766516343058e-02 -7.0079426446307672e-02
      2.6651356984187163e-01 -4.8433132950399617e-02
      1.7401800507466939e-01 3.2027353602072062e-01
      -6.9515242002351735e-02 1.5532859157749859e-01
      1.5353082439714050e-01 -2.4988798258633173e-02
      -2.1487186607342692e-02 2.5275281111171888e-02
      -9.6306183525233305e-02 -1.9566000518566240e-01
      -5.4494264554752342e-02 1.9572074537898962e-01</_>
    <_>
      1.3103700215425615e-01 7.0812463103704404e-01
      1.4265433996877545e-02 1.9872257027457435e-01
      -3.1833682050158874e-01 -1.4555828035001558e-01
      2.5776769726874316e-01 7.1517802620893811e-01
      4.0081284453424065e-01 -2.6497375448326057e-02
      1.6566641787232206e-01 -1.4524828088913480e-01
      -9.0305316389555162e-02 6.2211007301437804e-02
      -3.1473007133865200e-01 -1.1408322926918689e-01
      -8.9415818638271208e-02 -4.0836740045495951e-02
      3.1464438748399727e-03 -1.2339422111448210e-01
      3.4718770115361863e-01 -1.7854968947779898e-01
      -6.6518873943758616e-01 -4.2935189704023785e-01
      -3.4282727362178156e-01 1.8359581165450872e-01
      1.4997181353391198e-01 -7.9658880978533367e-02
      -5.2299868264486460e-02 -2.7914288690137601e-01
      4.8174803376353026e-01 2.4680685428003310e-01
      -4.0835465834181212e-01 -3.9746685775128565e-01
      2.2266190680738146e-01 -5.9282364088703444e-02
      -7.5688692304947666e-02 -3.9088852806923133e-02
      -4.2127503631137919e-01 1.9745834975488002e-01
      2.5877915324350437e-01 1.0857843317274861e-01
      -5.5695777852796537e-02 -2.8396830553109165e-01
      -1.1508623251191580e-01 1.0092909955568070e-01
      -2.2321329965298727e-02 -7.5235667225423311e-02
      2.4506133923191709e-01 -8.2595262504646424e-02
      4.9509205288061811e-02 -2.4793074711481378e-01
      -1.6942099733354362e-02 -2.9749170567712030e-01
      -1.2468159831212479e-01 5.6888344003354699e-02
      -3.3962899995248602e-01 1.4126674503644798e-01
      3.2336389534035315e-01 -1.6495502332624971e-02
      1.3617767684785761e-01 1.2135011480621055e-01
      1.1815002164091958e-01 -9.5737697193484586e-02
      2.2878859124947151e-01 -1.6774671177028122e-01
      -1.0151282525474582e-01 -1.7563817100607865e-01
      -5.3587480921456476e-01 3.4996046772118827e-01
      1.2816491405043319e-02 4.0211423126621176e-01
      -1.6732034367049592e-01 -3.1092921161491027e-01
      1.2904889301383143e-01 -1.4959608394433048e-03
      6.1667372864647643e-02 2.6494190891707520e-01
      1.3476347352821437e-02 2.5339137995157773e-02
      -2.4356007528581239e-01 1.6845392326305283e-01
      1.6972559974461018e-01 6.1287577675008968e-02
      -3.1296728372794830e-01 -6.8618038937714079e-02
      1.8024968662418023e-01 -1.3786146007342623e-01
      -1.5811248208325585e-01 3.1501450933226260e-01
      4.7321297406392624e-03 -2.0929896226267960e-03
      -2.0238991227296255e-01 3.2161359605097653e-02
      -5.7509642891672286e-01 -1.5974877979283472e-01
      8.8200250863336882e-02 -2.4285579188686285e-01
      -2.8454291197658621e-01 -5.4296003730409277e-02
      6.2063019449280221e-01 -2.0659859116504067e-01
      -2.3765436148626688e-02 7.7338510750261422e-02
      -5.7125807556847852e-01 6.5379948189185466e-01
      1.7456408244412250e-01 2.2412301691694039e-01
      -2.8649875306852274e-01 8.2242591048535523e-03</_>
    <_>
      -7.2334642142981243e-01 -3.9254007733748647e-01
      -7.5317199284153360e-03 -5.5471482032186026e-01
      -9.0580121551458492e-01 -3.1031450368143372e-02
      6.9019707424066656e-01 3.2321011200611249e-01
      -2.6563317010392828e-01 5.1768828169088461e-02
      -5.6605092170347392e-02 -4.3218957800718616e-01
      -6.5887904925370855e-01 3.0881896429396899e-01
      -6.7410063287089061e-01 7.0574095608368148e-01
      -6.5594646204713031e-02 2.1331251513454685e-01
      6.3276080685549474e-01 -8.9098235992450847e-01
      6.8813659367480762e-01 -1.2980532190697915e+00
      -3.9616137299104448e-01 -6.1697580656647821e-01
      -1.0644270649382874e+00 2.3418007141399827e-01
      1.2627121194164317e+00 1.2593928698519015e+00
      -6.6861705820075001e-01 9.4937570841700097e-02
      6.0834100151353632e-01 -2.7216471390553704e-01
      1.7526685315588086e-01 6.7494541757704285e-01
      -1.4004739651517106e-01 -2.5048884887819189e-01
      -3.5290638181069933e-01 -3.7195393896476431e-01
      -1.4452237488607952e-01 -2.1806207126332872e-01
      4.9782577512473503e-01 6.7711690672428926e-01
      -1.5700612611542208e-01 5.0564154823902208e-01
      2.4376776047010340e-01 2.4769939166160429e-01
      -5.0082956968405612e-01 -1.0286734309865411e+00
      4.1874591656755039e-01 -6.6679470428284815e-01
      1.0705914441284645e+00 -3.3706981589663243e-01
      6.2837491662342226e-01 -1.2420202184999394e+00
      -5.7205263119115757e-01 -9.5474132340392792e-01
      -4.7272685386932467e-01 2.6264266614548670e-01
      7.9304805553962399e-01 -4.6828138914820172e-01
      2.2952538717745499e-01 -6.9490209469263009e-01
      4.0590051757039158e-01 1.4481048812978642e-01
      -6.0436016209469801e-01 -1.0571323853000071e-01
      -6.4721744242574084e-02 6.6378400223805922e-01
      7.3267928468478138e-01 5.4789638777227652e-02
      7.2658734090986277e-01 -5.5942558033349599e-01
      3.2106183091929619e-01 2.4595182252745931e-01
      3.8663451958262168e-01 -6.6654085517227035e-01
      -4.3821345223652897e-01 3.5408765335878878e-01
      2.2246569400410540e-01 -5.1938938617278593e-02
      -1.2870436063783297e+00 5.8639172020211894e-01
      -3.6693841775934005e-01 -4.8490324438867644e-01
      1.7296020774671744e-01 7.9524419846559735e-01
      -3.0786743669417110e-01 7.2304790554689402e-01
      -2.0627842223172702e-01 -5.5327157472470001e-01
      5.3098617504081236e-01 -7.0808868330364760e-02
      -4.3843435777453582e-01 9.6233906779555914e-02
      -6.8351677344524331e-01 1.0441027929141618e-01
      -5.5697499202979894e-01 -4.1569579801820800e-01
      1.4999586040524432e-01 1.0075156267225380e+00
      -8.5186993735126326e-01 2.2171849005977551e-01
      -6.9079181726537553e-01 -9.5079843399183861e-01
      1.3524146402554527e+00 -1.2655907965958597e+00
      1.0581108915363866e+00 -2.9262515309882059e-01
      3.2175507812229515e-01 2.3618891078697932e-01
      -4.6408308486071248e-01 -2.8307478673499059e-01
      -8.6637553745931151e-01 -2.1304587700768982e-01
      -8.3240751515607880e-01 -6.6525303718141970e-01
      -7.1219035020934546e-02 -1.0901594870041852e-01
      2.7670959660297861e-01 -7.0928037918205999e-01
      3.4663971077187045e-01 -1.3001655188940872e-01
      3.6679874938242274e-01 6.4539240455471852e-02
      6.1283128794004493e-01 -9.0819079697688221e-01
      -2.8764524079806114e-01 -7.2925238294538919e-01
      1.7984963070305759e-01 1.8112859418133612e-01
      -1.1070602686265163e+00 -4.4392131344501227e-02
      7.0353472631010905e-01 2.3600955309299643e-01
      -3.1264043896495081e-01 3.5771696339923692e-01
      -1.7098428065951656e-02 5.3839942599622304e-01
      -4.4668873165898704e-01 -2.5494807557507987e-01
      -9.2259817994033003e-02 8.6766373573174449e-01
      1.5006730431502160e-01 -9.2905250162110808e-01
      1.2219795608341745e-01 -9.1630716526933564e-01
      -3.4151205337240392e-01 9.4862837846035708e-01
      -8.2597110398842233e-01 -5.1420790627394020e-01
      -9.2044157145999284e-01 1.0097899445694847e-01
      7.6822432843487232e-01 -3.4908975678868948e-01
      -4.0952500528878466e-01 -9.2809715190567765e-01
      6.5276774753658243e-02 1.0319090348881601e+00
      -1.0122931373717565e+00 -9.9905342979557332e-01
      2.7547108634360939e-01 6.0163921475735105e-01
      2.2290271932261665e-01 8.7072918761925189e-01
      4.3867641385961709e-01 -6.3252682385672387e-01
      -6.1866587767736458e-01 -1.1047181427557662e-01
      4.7941521429105249e-01 -6.8761107330139892e-01
      4.4283319809473987e-01 -9.9156123346068425e-01
      -7.1906342117146560e-01 -8.4354578819254522e-01
      -5.6148906492919726e-01 -9.4121344797171297e-02
      -2.7353885656950244e-01 -3.2348245581988067e-01
      8.7863028657496012e-02 7.0022613290853453e-01
      4.5450001752317962e-02 5.1934880831551133e-01
      1.0936936969905930e+00 -4.7077983902784515e-01
      -9.8202329537637356e-01 4.4797881840784215e-01
      -5.0411417468928066e-01 -4.7485586425252641e-01
      -5.2618022074211479e-01 -9.5321326065409362e-01
      -6.5891590188554242e-02 6.2211754481612347e-01
      2.0932046573401853e-02 1.4085606193055902e-01
      -4.7044283326279113e-01 -5.3113688812397286e-01
      -7.5184439838751727e-02 -8.5247000642214954e-01
      8.1744755675161007e-01 -2.6762993221549691e-01
      1.8359498683012268e-01 1.5509177803832197e-01
      3.3604852754628090e-01 -1.1176821816626188e+00
      -5.4733818960202862e-01 5.4996646565616036e-01
      -1.1840161715285882e+00 2.8185261499154662e-01
      2.2975948057286413e-01 9.8654704498710610e-01
      9.4170769820370426e-01 -3.4106823342597625e-01
      -8.7189587832025961e-02 6.0914977358666500e-01
      -2.4520299526787009e-01 8.4340598036034498e-02
      -5.1915516699273045e-01 -3.1868406080125550e-01
      3.3135401163177364e-01 3.0499177353593737e-01
      -9.9400713779146832e-02 1.0173962650094224e+00
      -3.6741296279393143e-01 2.2251754313977434e-01
      -6.8462935260165092e-01 2.5143833256264558e-01
      2.1675189231800385e-01 4.3918283060501030e-02
      9.6275154927777842e-02 5.5487162914017407e-01
      4.3540023425517743e-01 -6.0360764374149767e-01
      -1.3525015774537092e+00 6.8171290556960706e-01
      5.5097833117877348e-01 -1.2825842832072649e+00
      -5.5991950399037538e-01 8.0289234003649901e-01
      -9.4891975403359241e-01 2.6867876801088786e-01
      -8.2483788880074149e-01 -7.4250920028564538e-01
      9.9647807455848392e-02 -3.4041798643489979e-01
      2.4625930788151265e-01 1.0149377721765027e+00
      -6.9104694705231873e-01 8.8669770513246893e-01
      -8.7905612196437921e-01 -4.9443183286777331e-01
      -5.9400502123828514e-01 8.7346880927473403e-01
      -2.3990735019550301e-02 4.4645132573287355e-01
      5.1933190081696771e-02 -3.9607479084334563e-01
      5.3163915465259182e-01 5.7510407822060301e-02
      5.1460483838147575e-01 9.5907393062518587e-01
      3.9273746411290854e-02 -1.2069105202212413e+00
      -7.5908632855505298e-01 -9.1557941319786503e-03
      5.8324414256658041e-01 2.5254418452985716e-02
      -3.8270954095569926e-01 -4.2102172324189130e-01
      -1.5369663128860162e-01 -2.0546084865467473e-01
      -1.8554583468526897e-01 -3.8366199564950748e-01
      2.4001879957980372e-02 4.2741755706369006e-01
      2.6072037644386847e-01 1.4221898770765062e-01
      2.1999901279532277e-01 -2.0682603570147332e-01
      3.9567115890736138e-01 5.7978446174349174e-01
      2.9970592815328273e-01 -9.2862859792770180e-01
      -1.6355692806396826e-02 -2.9755412517629171e-01
      -5.3101646923482904e-01 3.8128284094207576e-01</_></weights></opencv_ml_ann_mlp>
</opencv_storage>
